{"parameters/vgg_block.vgg_block.0.conv.weight": {"_type": "histogram", "values": [2.0, 1.0, 2.0, 3.0, 11.0, 17.0, 35.0, 49.0, 50.0, 73.0, 43.0, 47.0, 69.0, 75.0, 64.0, 36.0, 21.0, 22.0, 20.0, 19.0, 15.0, 26.0, 15.0, 23.0, 19.0, 23.0, 28.0, 37.0, 28.0, 29.0, 29.0, 28.0, 27.0, 27.0, 18.0, 32.0, 16.0, 32.0, 10.0, 13.0, 12.0, 13.0, 10.0, 12.0, 16.0, 11.0, 15.0, 20.0, 30.0, 48.0, 66.0, 32.0, 61.0, 40.0, 38.0, 44.0, 43.0, 27.0, 31.0, 10.0, 7.0, 3.0, 4.0, 1.0], "bins": [-3.4367387294769287, -3.3302721977233887, -3.2238054275512695, -3.1173388957977295, -3.0108723640441895, -2.9044055938720703, -2.7979390621185303, -2.6914725303649902, -2.585005760192871, -2.478539228439331, -2.372072696685791, -2.265605926513672, -2.159139394760132, -2.052672863006592, -1.9462062120437622, -1.8397396802902222, -1.7332730293273926, -1.626806378364563, -1.520339846611023, -1.4138731956481934, -1.3074066638946533, -1.2009398937225342, -1.0944733619689941, -0.9880068302154541, -0.881540060043335, -0.7750735282897949, -0.6686069965362549, -0.5621404647827148, -0.4556736946105957, -0.34920716285705566, -0.24274063110351562, -0.13627386093139648, -0.029807329177856445, 0.0766592025756836, 0.18312597274780273, 0.2895925045013428, 0.3960590362548828, 0.502525806427002, 0.608992338180542, 0.715458869934082, 0.8219254016876221, 0.9283921718597412, 1.0348587036132812, 1.1413252353668213, 1.2477920055389404, 1.3542585372924805, 1.46072518825531, 1.56719172000885, 1.6736583709716797, 1.7801250219345093, 1.8865915536880493, 1.993058204650879, 2.099524736404419, 2.205991268157959, 2.312458038330078, 2.418924570083618, 2.525391101837158, 2.6318578720092773, 2.7383244037628174, 2.8447909355163574, 2.9512577056884766, 3.0577242374420166, 3.1641907691955566, 3.270657539367676, 3.377124071121216]}, "_timestamp": 1691657575.444321, "parameters/vgg_block.vgg_block.0.conv.bias": {"_type": "histogram", "values": [1.0, 0.0, 1.0, 1.0, 1.0, 0.0, 2.0, 0.0, 1.0, 2.0, 0.0, 2.0, 0.0, 1.0, 3.0, 1.0, 2.0, 0.0, 1.0, 0.0, 1.0, 1.0, 1.0, 3.0, 0.0, 2.0, 0.0, 0.0, 0.0, 0.0, 3.0, 2.0, 0.0, 2.0, 1.0, 0.0, 0.0, 0.0, 0.0, 0.0, 2.0, 2.0, 2.0, 3.0, 1.0, 0.0, 0.0, 0.0, 2.0, 0.0, 1.0, 1.0, 0.0, 1.0, 1.0, 2.0, 1.0, 3.0, 1.0, 2.0, 0.0, 1.0, 0.0, 3.0], "bins": [-2.467344045639038, -2.3959569931030273, -2.3245699405670166, -2.253182888031006, -2.181795835494995, -2.1104087829589844, -2.0390214920043945, -1.9676345586776733, -1.896247386932373, -1.8248603343963623, -1.7534732818603516, -1.6820862293243408, -1.61069917678833, -1.5393121242523193, -1.4679250717163086, -1.3965378999710083, -1.3251508474349976, -1.2537637948989868, -1.182376742362976, -1.1109895706176758, -1.039602518081665, -0.9682154655456543, -0.8968284130096436, -0.8254413604736328, -0.7540543079376221, -0.6826671361923218, -0.611280083656311, -0.5398930311203003, -0.46850597858428955, -0.39711880683898926, -0.3257317543029785, -0.2543447017669678, -0.18295764923095703, -0.11157059669494629, -0.04018354415893555, 0.031203508377075195, 0.10259068012237549, 0.17397773265838623, 0.24536478519439697, 0.3167518377304077, 0.388139009475708, 0.45952606201171875, 0.5309131145477295, 0.6023001670837402, 0.673687219619751, 0.7450742721557617, 0.816461443901062, 0.8878484964370728, 0.9592355489730835, 1.0306226015090942, 1.1020097732543945, 1.1733968257904053, 1.244783878326416, 1.3161709308624268, 1.3875579833984375, 1.4589450359344482, 1.530332088470459, 1.6017192602157593, 1.67310631275177, 1.7444933652877808, 1.8158804178237915, 1.8872675895690918, 1.9586546421051025, 2.0300416946411133, 2.101428747177124]}, "parameters/vgg_block.vgg_block.0.bn.weight": {"_type": "histogram", "values": [1.0, 2.0, 1.0, 0.0, 0.0, 0.0, 2.0, 2.0, 1.0, 2.0, 0.0, 0.0, 0.0, 1.0, 4.0, 5.0, 6.0, 1.0, 2.0, 2.0, 1.0, 1.0, 2.0, 1.0, 1.0, 0.0, 1.0, 1.0, 1.0, 5.0, 0.0, 0.0, 0.0, 0.0, 0.0, 0.0, 0.0, 0.0, 0.0, 1.0, 0.0, 1.0, 1.0, 0.0, 1.0, 0.0, 0.0, 1.0, 1.0, 1.0, 4.0, 0.0, 1.0, 0.0, 0.0, 0.0, 0.0, 0.0, 0.0, 0.0, 0.0, 0.0, 1.0, 5.0], "bins": [-1.8864442110061646, -1.8031290769577026, -1.7198139429092407, -1.6364988088607788, -1.5531835556030273, -1.4698684215545654, -1.3865532875061035, -1.3032381534576416, -1.2199230194091797, -1.1366078853607178, -1.0532927513122559, -0.9699775576591492, -0.8866624236106873, -0.8033472299575806, -0.7200320959091187, -0.6367169618606567, -0.5534018278121948, -0.4700866937637329, -0.386771559715271, -0.3034564256668091, -0.22014129161834717, -0.1368260383605957, -0.05351090431213379, 0.029804229736328125, 0.11311936378479004, 0.1964346170425415, 0.2797497510910034, 0.36306488513946533, 0.44638001918792725, 0.5296951532363892, 0.6130102872848511, 0.696325421333313, 0.7796406745910645, 0.8629558086395264, 0.9462709426879883, 1.0295860767364502, 1.112901210784912, 1.196216344833374, 1.279531478881836, 1.3628466129302979, 1.4461618661880493, 1.5294770002365112, 1.6127921342849731, 1.696107268333435, 1.7794225215911865, 1.8627376556396484, 1.9460527896881104, 2.0293679237365723, 2.112683057785034, 2.195998191833496, 2.279313325881958, 2.36262845993042, 2.445943593978882, 2.5292587280273438, 2.6125741004943848, 2.6958889961242676, 2.7792043685913086, 2.8625192642211914, 2.9458346366882324, 3.0291497707366943, 3.1124649047851562, 3.195780038833618, 3.27909517288208, 3.362410306930542, 3.445725440979004]}, "parameters/vgg_block.vgg_block.0.bn.bias": {"_type": "histogram", "values": [2.0, 1.0, 3.0, 5.0, 1.0, 3.0, 1.0, 1.0, 2.0, 1.0, 0.0, 2.0, 3.0, 1.0, 0.0, 0.0, 0.0, 3.0, 1.0, 4.0, 2.0, 2.0, 1.0, 0.0, 0.0, 4.0, 3.0, 0.0, 2.0, 0.0, 2.0, 0.0, 0.0, 0.0, 0.0, 0.0, 0.0, 0.0, 1.0, 0.0, 0.0, 0.0, 2.0, 1.0, 0.0, 0.0, 2.0, 0.0, 2.0, 1.0, 0.0, 0.0, 0.0, 0.0, 0.0, 0.0, 1.0, 2.0, 1.0, 0.0, 0.0, 0.0, 0.0, 1.0], "bins": [-2.8596580028533936, -2.768584966659546, -2.6775119304656982, -2.5864388942718506, -2.495365858078003, -2.4042928218841553, -2.3132200241088867, -2.222146987915039, -2.1310739517211914, -2.0400009155273438, -1.9489277601242065, -1.8578547239303589, -1.7667818069458008, -1.6757087707519531, -1.5846357345581055, -1.4935626983642578, -1.4024896621704102, -1.3114166259765625, -1.2203435897827148, -1.1292705535888672, -1.0381975173950195, -0.9471246004104614, -0.8560514450073242, -0.7649784088134766, -0.673905611038208, -0.5828325748443604, -0.4917595386505127, -0.40068650245666504, -0.3096134662628174, -0.21854043006896973, -0.12746739387512207, -0.036394357681274414, 0.05467844009399414, 0.1457514762878418, 0.23682451248168945, 0.3278975486755371, 0.41897058486938477, 0.5100436210632324, 0.6011166572570801, 0.6921896934509277, 0.7832627296447754, 0.874335527420044, 0.9654085636138916, 1.0564817190170288, 1.147554636001587, 1.2386276721954346, 1.3297007083892822, 1.4207737445831299, 1.5118467807769775, 1.6029198169708252, 1.6939928531646729, 1.7850658893585205, 1.8761389255523682, 1.9672118425369263, 2.0582847595214844, 2.149357795715332, 2.2404308319091797, 2.3315038681030273, 2.422576904296875, 2.5136499404907227, 2.6047229766845703, 2.695796012878418, 2.7868690490722656, 2.8779420852661133, 2.969015121459961]}, "parameters/vgg_block.vgg_block.1.conv.weight": {"_type": "histogram", "values": [1.0, 6.0, 18.0, 23.0, 52.0, 81.0, 232.0, 845.0, 835.0, 747.0, 613.0, 454.0, 732.0, 6536.0, 1135.0, 549.0, 408.0, 323.0, 268.0, 217.0, 196.0, 180.0, 179.0, 186.0, 203.0, 238.0, 355.0, 549.0, 540.0, 452.0, 452.0, 413.0, 412.0, 446.0, 515.0, 650.0, 612.0, 414.0, 218.0, 219.0, 186.0, 195.0, 176.0, 178.0, 186.0, 216.0, 262.0, 329.0, 415.0, 1155.0, 5349.0, 1129.0, 713.0, 966.0, 1156.0, 1078.0, 1190.0, 280.0, 86.0, 54.0, 39.0, 19.0, 2.0, 1.0], "bins": [-3.466343402862549, -3.35776424407959, -3.2491848468780518, -3.1406056880950928, -3.032026529312134, -2.9234471321105957, -2.8148679733276367, -2.7062888145446777, -2.5977096557617188, -2.4891304969787598, -2.3805510997772217, -2.2719719409942627, -2.1633925437927246, -2.0548133850097656, -1.9462342262268066, -1.8376550674438477, -1.7290757894515991, -1.6204965114593506, -1.5119173526763916, -1.4033381938934326, -1.2947587966918945, -1.1861796379089355, -1.0776004791259766, -0.9690213203430176, -0.8604419231414795, -0.7518627643585205, -0.6432836055755615, -0.5347042083740234, -0.42612504959106445, -0.31754589080810547, -0.20896673202514648, -0.1003873348236084, 0.008191823959350586, 0.11677098274230957, 0.22535037994384766, 0.33392953872680664, 0.4425086975097656, 0.5510878562927246, 0.6596672534942627, 0.7682464122772217, 0.8768255710601807, 0.9854049682617188, 1.0939841270446777, 1.2025632858276367, 1.3111424446105957, 1.4197218418121338, 1.5283010005950928, 1.6368801593780518, 1.7454594373703003, 1.8540387153625488, 1.9626178741455078, 2.071197032928467, 2.179776191711426, 2.288355588912964, 2.396934747695923, 2.505514144897461, 2.61409330368042, 2.722672462463379, 2.831251621246338, 2.939830780029297, 3.048410177230835, 3.156989336013794, 3.265568494796753, 3.374147891998291, 3.48272705078125]}, "parameters/vgg_block.vgg_block.1.conv.bias": {"_type": "histogram", "values": [2.0, 2.0, 0.0, 1.0, 0.0, 1.0, 1.0, 2.0, 2.0, 1.0, 1.0, 5.0, 0.0, 0.0, 1.0, 0.0, 1.0, 0.0, 2.0, 1.0, 1.0, 0.0, 2.0, 0.0, 0.0, 0.0, 1.0, 0.0, 2.0, 0.0, 0.0, 2.0, 2.0, 0.0, 0.0, 2.0, 1.0, 1.0, 1.0, 0.0, 0.0, 0.0, 0.0, 1.0, 2.0, 1.0, 2.0, 2.0, 0.0, 2.0, 5.0, 1.0, 0.0, 2.0, 1.0, 0.0, 4.0, 0.0, 1.0, 0.0, 0.0, 0.0, 1.0, 1.0], "bins": [-1.9811233282089233, -1.9194531440734863, -1.8577829599380493, -1.7961127758026123, -1.7344425916671753, -1.6727724075317383, -1.6111021041870117, -1.5494320392608643, -1.4877617359161377, -1.4260916709899902, -1.3644213676452637, -1.3027513027191162, -1.2410809993743896, -1.1794108152389526, -1.1177406311035156, -1.0560704469680786, -0.9944002628326416, -0.9327300786972046, -0.8710598945617676, -0.8093897104263306, -0.7477195262908936, -0.6860493421554565, -0.6243791580200195, -0.5627089738845825, -0.501038670539856, -0.43936848640441895, -0.37769830226898193, -0.3160281181335449, -0.2543579339981079, -0.1926877498626709, -0.1310175657272339, -0.06934738159179688, -0.007677316665649414, 0.0539928674697876, 0.11566305160522461, 0.17733323574066162, 0.23900341987609863, 0.30067360401153564, 0.36234378814697266, 0.42401397228240967, 0.4856841564178467, 0.5473544597625732, 0.6090246438980103, 0.6706948280334473, 0.7323650121688843, 0.7940351963043213, 0.8557053804397583, 0.9173755645751953, 0.9790457487106323, 1.0407159328460693, 1.1023861169815063, 1.1640563011169434, 1.2257264852523804, 1.2873966693878174, 1.349066972732544, 1.4107370376586914, 1.472407341003418, 1.5340774059295654, 1.595747709274292, 1.657417893409729, 1.719088077545166, 1.780758261680603, 1.84242844581604, 1.904098629951477, 1.965768814086914]}, "parameters/vgg_block.vgg_block.1.bn.weight": {"_type": "histogram", "values": [1.0, 0.0, 0.0, 2.0, 2.0, 0.0, 0.0, 1.0, 3.0, 0.0, 2.0, 1.0, 0.0, 2.0, 0.0, 1.0, 1.0, 2.0, 0.0, 0.0, 5.0, 2.0, 2.0, 0.0, 0.0, 0.0, 0.0, 0.0, 1.0, 7.0, 5.0, 0.0, 2.0, 0.0, 0.0, 0.0, 0.0, 0.0, 0.0, 1.0, 0.0, 0.0, 0.0, 0.0, 0.0, 0.0, 1.0, 1.0, 1.0, 1.0, 3.0, 3.0, 3.0, 0.0, 0.0, 1.0, 0.0, 0.0, 0.0, 0.0, 4.0, 1.0, 0.0, 2.0], "bins": [-2.1990609169006348, -2.107267379760742, -2.0154740810394287, -1.9236805438995361, -1.8318872451782227, -1.74009370803833, -1.648300290107727, -1.556506872177124, -1.464713454246521, -1.372920036315918, -1.281126618385315, -1.189333200454712, -1.0975396633148193, -1.0057462453842163, -0.9139528274536133, -0.8221594095230103, -0.7303659915924072, -0.6385725736618042, -0.5467791557312012, -0.45498573780059814, -0.3631923198699951, -0.27139878273010254, -0.17960548400878906, -0.08781194686889648, 0.003981590270996094, 0.09577488899230957, 0.18756842613220215, 0.2793617248535156, 0.3711552619934082, 0.4629485607147217, 0.5547420978546143, 0.6465353965759277, 0.7383291721343994, 0.830122709274292, 0.9219160079956055, 1.013709545135498, 1.1055028438568115, 1.197296380996704, 1.2890896797180176, 1.3808832168579102, 1.4726765155792236, 1.5644700527191162, 1.6562635898590088, 1.7480568885803223, 1.8398504257202148, 1.9316438436508179, 2.023437261581421, 2.1152305603027344, 2.207024097442627, 2.2988176345825195, 2.390610933303833, 2.4824042320251465, 2.574197769165039, 2.6659913063049316, 2.757784843444824, 2.8495781421661377, 2.941371440887451, 3.0331649780273438, 3.1249585151672363, 3.21675181388855, 3.3085453510284424, 3.400338649749756, 3.4921321868896484, 3.583925485610962, 3.6757190227508545]}, "parameters/vgg_block.vgg_block.1.bn.bias": {"_type": "histogram", "values": [1.0, 0.0, 0.0, 3.0, 4.0, 2.0, 1.0, 0.0, 0.0, 1.0, 4.0, 0.0, 3.0, 5.0, 2.0, 0.0, 2.0, 1.0, 1.0, 0.0, 0.0, 1.0, 0.0, 0.0, 0.0, 0.0, 4.0, 5.0, 0.0, 1.0, 0.0, 0.0, 0.0, 0.0, 0.0, 2.0, 0.0, 2.0, 3.0, 0.0, 2.0, 0.0, 1.0, 0.0, 1.0, 0.0, 1.0, 0.0, 0.0, 0.0, 2.0, 1.0, 2.0, 0.0, 0.0, 0.0, 0.0, 0.0, 0.0, 0.0, 1.0, 3.0, 0.0, 2.0], "bins": [-2.7033395767211914, -2.620241641998291, -2.5371439456939697, -2.4540460109710693, -2.370948076248169, -2.2878503799438477, -2.2047524452209473, -2.121654510498047, -2.0385565757751465, -1.9554588794708252, -1.8723609447479248, -1.789263129234314, -1.7061653137207031, -1.6230673789978027, -1.539969563484192, -1.4568716287612915, -1.3737738132476807, -1.2906759977340698, -1.2075780630111694, -1.1244802474975586, -1.0413823127746582, -0.9582844972610474, -0.8751866817474365, -0.7920887470245361, -0.7089909315109253, -0.6258931159973145, -0.5427951812744141, -0.45969724655151367, -0.3765995502471924, -0.293501615524292, -0.2104036808013916, -0.1273059844970703, -0.04420828819274902, 0.03888964653015137, 0.12198734283447266, 0.20508527755737305, 0.28818321228027344, 0.3712809085845947, 0.4543788433074951, 0.5374767780303955, 0.6205745935440063, 0.7036724090576172, 0.7867703437805176, 0.8698681592941284, 0.9529659748077393, 1.0360639095306396, 1.1191617250442505, 1.2022596597671509, 1.2853574752807617, 1.3684552907943726, 1.451553225517273, 1.5346510410308838, 1.6177489757537842, 1.700846791267395, 1.7839446067810059, 1.8670425415039062, 1.950140357017517, 2.033238172531128, 2.1163361072540283, 2.1994338035583496, 2.28253173828125, 2.3656296730041504, 2.448727607727051, 2.531825304031372, 2.6149232387542725]}, "parameters/vgg_block.vgg_block.3.conv.weight": {"_type": "histogram", "values": [8.0, 43.0, 71.0, 95.0, 203.0, 382.0, 1448.0, 1582.0, 1520.0, 1477.0, 1164.0, 1403.0, 8624.0, 5947.0, 1195.0, 817.0, 622.0, 524.0, 458.0, 397.0, 396.0, 400.0, 372.0, 385.0, 389.0, 488.0, 724.0, 1087.0, 1064.0, 833.0, 737.0, 752.0, 796.0, 831.0, 986.0, 1280.0, 1346.0, 952.0, 563.0, 440.0, 341.0, 335.0, 348.0, 376.0, 414.0, 394.0, 434.0, 613.0, 814.0, 1236.0, 7611.0, 5635.0, 1585.0, 1605.0, 2131.0, 2173.0, 2125.0, 1622.0, 543.0, 266.0, 141.0, 107.0, 67.0, 11.0], "bins": [-3.357002019882202, -3.2517738342285156, -3.146545648574829, -3.0413174629211426, -2.936089277267456, -2.8308610916137695, -2.725632905960083, -2.6204047203063965, -2.51517653465271, -2.4099483489990234, -2.304720163345337, -2.1994919776916504, -2.094263792037964, -1.9890356063842773, -1.8838074207305908, -1.7785792350769043, -1.6733510494232178, -1.5681228637695312, -1.4628946781158447, -1.3576664924621582, -1.2524383068084717, -1.1472101211547852, -1.0419819355010986, -0.9367537498474121, -0.8315255641937256, -0.7262973785400391, -0.6210691928863525, -0.515841007232666, -0.4106128215789795, -0.30538463592529297, -0.20015645027160645, -0.09492826461791992, 0.0102996826171875, 0.11552786827087402, 0.22075605392456055, 0.32598423957824707, 0.4312124252319336, 0.5364406108856201, 0.6416687965393066, 0.7468969821929932, 0.8521251678466797, 0.9573533535003662, 1.0625815391540527, 1.1678097248077393, 1.2730379104614258, 1.3782660961151123, 1.4834942817687988, 1.5887224674224854, 1.6939506530761719, 1.7991788387298584, 1.904407024383545, 2.0096352100372314, 2.114863395690918, 2.2200915813446045, 2.325319766998291, 2.4305479526519775, 2.535776138305664, 2.6410043239593506, 2.746232509613037, 2.8514606952667236, 2.95668888092041, 3.0619170665740967, 3.167145252227783, 3.2723734378814697, 3.3776016235351562]}, "parameters/vgg_block.vgg_block.3.conv.bias": {"_type": "histogram", "values": [2.0, 0.0, 1.0, 2.0, 1.0, 1.0, 0.0, 3.0, 2.0, 0.0, 3.0, 2.0, 1.0, 5.0, 2.0, 2.0, 2.0, 2.0, 6.0, 1.0, 3.0, 3.0, 5.0, 2.0, 3.0, 0.0, 6.0, 2.0, 0.0, 3.0, 7.0, 6.0, 4.0, 1.0, 1.0, 2.0, 0.0, 3.0, 2.0, 2.0, 1.0, 1.0, 3.0, 1.0, 3.0, 0.0, 0.0, 1.0, 3.0, 1.0, 2.0, 5.0, 2.0, 3.0, 2.0, 2.0, 1.0, 0.0, 1.0, 1.0, 0.0, 0.0, 1.0, 1.0], "bins": [-1.427334189414978, -1.3810328245162964, -1.3347314596176147, -1.288430094718933, -1.242128849029541, -1.1958274841308594, -1.1495261192321777, -1.103224754333496, -1.0569233894348145, -1.0106220245361328, -0.9643206596374512, -0.9180193543434143, -0.8717179894447327, -0.825416624546051, -0.7791153192520142, -0.7328139543533325, -0.6865125894546509, -0.6402112245559692, -0.5939098596572876, -0.5476085543632507, -0.5013071894645691, -0.45500582456588745, -0.4087045192718506, -0.36240315437316895, -0.3161017894744873, -0.26980042457580566, -0.22349905967712402, -0.17719769477844238, -0.1308964490890503, -0.08459508419036865, -0.03829371929168701, 0.008007645606994629, 0.05430889129638672, 0.10061025619506836, 0.14691162109375, 0.19321298599243164, 0.23951435089111328, 0.28581559658050537, 0.332116961479187, 0.37841832637786865, 0.4247196912765503, 0.47102105617523193, 0.5173224210739136, 0.5636237263679504, 0.6099250912666321, 0.6562264561653137, 0.7025277614593506, 0.7488291263580322, 0.7951304912567139, 0.8414318561553955, 0.8877332210540771, 0.934034526348114, 0.9803358912467957, 1.026637315750122, 1.0729385614395142, 1.1192399263381958, 1.1655412912368774, 1.211842656135559, 1.2581440210342407, 1.3044453859329224, 1.3507466316223145, 1.397047996520996, 1.4433493614196777, 1.4896507263183594, 1.535952091217041]}, "parameters/vgg_block.vgg_block.3.bn.weight": {"_type": "histogram", "values": [3.0, 0.0, 1.0, 1.0, 2.0, 6.0, 5.0, 0.0, 2.0, 2.0, 0.0, 0.0, 1.0, 3.0, 4.0, 4.0, 1.0, 1.0, 2.0, 5.0, 1.0, 2.0, 2.0, 2.0, 3.0, 1.0, 0.0, 3.0, 12.0, 8.0, 0.0, 1.0, 0.0, 0.0, 0.0, 1.0, 0.0, 0.0, 0.0, 3.0, 1.0, 0.0, 1.0, 1.0, 1.0, 2.0, 2.0, 1.0, 5.0, 5.0, 2.0, 0.0, 3.0, 5.0, 1.0, 0.0, 1.0, 0.0, 0.0, 0.0, 1.0, 3.0, 3.0, 8.0], "bins": [-1.9185110330581665, -1.8338844776153564, -1.749258041381836, -1.6646314859390259, -1.5800049304962158, -1.4953784942626953, -1.4107519388198853, -1.3261253833770752, -1.2414989471435547, -1.1568725109100342, -1.0722459554672241, -0.9876194000244141, -0.902992844581604, -0.8183664083480835, -0.7337398529052734, -0.6491134166717529, -0.5644868612289429, -0.4798603057861328, -0.3952338695526123, -0.31060731410980225, -0.22598087787628174, -0.14135432243347168, -0.05672776699066162, 0.027898669242858887, 0.1125253438949585, 0.197151780128479, 0.2817782163619995, 0.36640465259552, 0.45103132724761963, 0.5356577634811401, 0.6202841997146606, 0.7049108743667603, 0.7895374298095703, 0.8741638660430908, 0.9587905406951904, 1.043416976928711, 1.1280434131622314, 1.212670087814331, 1.2972965240478516, 1.381922960281372, 1.4665493965148926, 1.5511760711669922, 1.6358025074005127, 1.7204290628433228, 1.8050556182861328, 1.8896820545196533, 1.9743086099624634, 2.0589351654052734, 2.143561601638794, 2.2281880378723145, 2.312814712524414, 2.3974411487579346, 2.482067584991455, 2.5666942596435547, 2.651320695877075, 2.7359471321105957, 2.8205738067626953, 2.905200242996216, 2.9898266792297363, 3.074453353881836, 3.1590797901153564, 3.243706226348877, 3.3283326625823975, 3.412959337234497, 3.4975857734680176]}, "parameters/vgg_block.vgg_block.3.bn.bias": {"_type": "histogram", "values": [3.0, 3.0, 2.0, 3.0, 4.0, 1.0, 2.0, 4.0, 1.0, 3.0, 3.0, 0.0, 3.0, 3.0, 2.0, 3.0, 3.0, 5.0, 5.0, 2.0, 3.0, 0.0, 1.0, 3.0, 1.0, 9.0, 7.0, 2.0, 1.0, 2.0, 0.0, 0.0, 0.0, 0.0, 0.0, 1.0, 6.0, 0.0, 1.0, 4.0, 2.0, 2.0, 1.0, 2.0, 2.0, 1.0, 0.0, 0.0, 2.0, 3.0, 4.0, 4.0, 0.0, 1.0, 0.0, 0.0, 0.0, 2.0, 2.0, 1.0, 1.0, 1.0, 0.0, 1.0], "bins": [-2.7877025604248047, -2.6987202167510986, -2.6097378730773926, -2.5207552909851074, -2.4317729473114014, -2.3427906036376953, -2.2538082599639893, -2.164825916290283, -2.075843334197998, -1.986860990524292, -1.897878646850586, -1.8088963031768799, -1.7199139595031738, -1.6309314966201782, -1.5419491529464722, -1.4529666900634766, -1.3639843463897705, -1.2750020027160645, -1.1860195398330688, -1.0970371961593628, -1.0080547332763672, -0.9190723896026611, -0.8300900459289551, -0.741107702255249, -0.652125358581543, -0.5631427764892578, -0.47416043281555176, -0.3851780891418457, -0.29619574546813965, -0.2072134017944336, -0.11823081970214844, -0.029248476028442383, 0.05973386764526367, 0.14871621131896973, 0.23769855499267578, 0.32668113708496094, 0.415663480758667, 0.504645824432373, 0.5936281681060791, 0.6826105117797852, 0.7715930938720703, 0.8605754375457764, 0.9495577812194824, 1.0385401248931885, 1.1275224685668945, 1.2165049314498901, 1.3054872751235962, 1.3944697380065918, 1.4834520816802979, 1.572434425354004, 1.6614168882369995, 1.7503992319107056, 1.8393816947937012, 1.9283640384674072, 2.0173463821411133, 2.1063287258148193, 2.1953110694885254, 2.2842936515808105, 2.3732759952545166, 2.4622583389282227, 2.5512406826019287, 2.6402230262756348, 2.72920560836792, 2.818187952041626, 2.907170295715332]}, "parameters/vgg_block.vgg_block.4.conv.weight": {"_type": "histogram", "values": [1.0, 0.0, 9.0, 50.0, 75.0, 151.0, 286.0, 1182.0, 3574.0, 3126.0, 3163.0, 2976.0, 3247.0, 15146.0, 21153.0, 2849.0, 1691.0, 1176.0, 967.0, 779.0, 721.0, 656.0, 546.0, 578.0, 572.0, 606.0, 947.0, 2320.0, 2158.0, 1595.0, 1428.0, 1341.0, 1241.0, 1471.0, 1567.0, 1939.0, 1792.0, 1203.0, 842.0, 758.0, 690.0, 757.0, 789.0, 830.0, 852.0, 1127.0, 1373.0, 1882.0, 3928.0, 27694.0, 4148.0, 2551.0, 2965.0, 3638.0, 3390.0, 3228.0, 942.0, 418.0, 186.0, 122.0, 53.0, 9.0, 1.0, 1.0], "bins": [-3.5863752365112305, -3.4735381603240967, -3.360700845718384, -3.24786376953125, -3.135026693344116, -3.0221893787384033, -2.9093523025512695, -2.7965149879455566, -2.683677911758423, -2.570840835571289, -2.458003520965576, -2.3451664447784424, -2.2323293685913086, -2.1194920539855957, -2.006654977798462, -1.8938179016113281, -1.7809807062149048, -1.6681435108184814, -1.5553064346313477, -1.4424691200256348, -1.329632043838501, -1.2167949676513672, -1.1039576530456543, -0.9911205768585205, -0.8782835006713867, -0.7654461860656738, -0.65260910987854, -0.5397720336914062, -0.42693471908569336, -0.31409764289855957, -0.20126056671142578, -0.08842325210571289, 0.0244138240814209, 0.1372509002685547, 0.2500882148742676, 0.36292529106140137, 0.47576236724853516, 0.588599681854248, 0.7014367580413818, 0.8142738342285156, 0.9271111488342285, 1.0399482250213623, 1.152785301208496, 1.265622615814209, 1.3784596920013428, 1.4912967681884766, 1.6041340827941895, 1.7169711589813232, 1.8298083543777466, 1.94264554977417, 2.0554826259613037, 2.1683197021484375, 2.2811570167541504, 2.393994092941284, 2.506831169128418, 2.619668483734131, 2.7325055599212646, 2.8453426361083984, 2.9581799507141113, 3.071017026901245, 3.183854341506958, 3.296691417694092, 3.4095284938812256, 3.5223658084869385, 3.6352028846740723]}, "parameters/vgg_block.vgg_block.4.conv.bias": {"_type": "histogram", "values": [1.0, 0.0, 1.0, 0.0, 2.0, 0.0, 0.0, 0.0, 2.0, 3.0, 1.0, 0.0, 0.0, 1.0, 5.0, 0.0, 1.0, 2.0, 2.0, 1.0, 3.0, 1.0, 2.0, 1.0, 4.0, 4.0, 3.0, 2.0, 6.0, 2.0, 1.0, 2.0, 4.0, 3.0, 1.0, 3.0, 3.0, 3.0, 1.0, 3.0, 3.0, 4.0, 3.0, 1.0, 3.0, 3.0, 3.0, 1.0, 6.0, 4.0, 5.0, 5.0, 2.0, 0.0, 1.0, 6.0, 1.0, 1.0, 1.0, 0.0, 0.0, 0.0, 0.0, 1.0], "bins": [-1.6995655298233032, -1.6484222412109375, -1.5972790718078613, -1.5461357831954956, -1.4949926137924194, -1.4438493251800537, -1.3927061557769775, -1.3415628671646118, -1.290419578552246, -1.23927640914917, -1.1881331205368042, -1.1369898319244385, -1.0858466625213623, -1.0347034931182861, -0.9835601449012756, -0.9324169158935547, -0.8812736868858337, -0.8301304578781128, -0.7789872288703918, -0.7278439402580261, -0.6767007112503052, -0.625557541847229, -0.5744142532348633, -0.5232709646224976, -0.4721277952194214, -0.42098450660705566, -0.3698413372039795, -0.31869804859161377, -0.26755475997924805, -0.21641159057617188, -0.16526830196380615, -0.11412513256072998, -0.06298184394836426, -0.011838555335998535, 0.03930461406707764, 0.09044790267944336, 0.14159107208251953, 0.19273436069488525, 0.24387764930725098, 0.29502081871032715, 0.34616410732269287, 0.39730727672576904, 0.44845056533813477, 0.4995938539505005, 0.5507370233535767, 0.6018802523612976, 0.6530235409736633, 0.7041667699813843, 0.7553099989891052, 0.8064532279968262, 0.8575964570045471, 0.9087397456169128, 0.9598829746246338, 1.01102614402771, 1.0621694326400757, 1.1133127212524414, 1.1644558906555176, 1.2155991792678833, 1.266742467880249, 1.3178856372833252, 1.369028925895691, 1.420172095298767, 1.4713153839111328, 1.522458553314209, 1.5736018419265747]}, "parameters/vgg_block.vgg_block.4.bn.weight": {"_type": "histogram", "values": [1.0, 1.0, 0.0, 0.0, 3.0, 1.0, 2.0, 3.0, 4.0, 3.0, 4.0, 1.0, 0.0, 3.0, 2.0, 1.0, 4.0, 1.0, 1.0, 2.0, 1.0, 2.0, 4.0, 1.0, 3.0, 2.0, 1.0, 2.0, 0.0, 1.0, 10.0, 5.0, 2.0, 0.0, 0.0, 0.0, 0.0, 0.0, 1.0, 1.0, 2.0, 4.0, 0.0, 0.0, 3.0, 0.0, 1.0, 2.0, 0.0, 3.0, 3.0, 3.0, 3.0, 3.0, 4.0, 2.0, 1.0, 1.0, 3.0, 0.0, 0.0, 1.0, 8.0, 8.0], "bins": [-2.278926372528076, -2.187913656234741, -2.0969009399414062, -2.0058882236480713, -1.9148753881454468, -1.8238626718521118, -1.7328499555587769, -1.6418371200561523, -1.5508244037628174, -1.4598116874694824, -1.3687989711761475, -1.2777862548828125, -1.1867735385894775, -1.0957608222961426, -1.004747986793518, -0.9137352705001831, -0.8227225542068481, -0.7317098379135132, -0.6406971216201782, -0.5496842861175537, -0.45867156982421875, -0.3676588535308838, -0.27664613723754883, -0.18563342094421387, -0.0946207046508789, -0.0036079883575439453, 0.08740472793579102, 0.17841768264770508, 0.26943039894104004, 0.360443115234375, 0.45145583152770996, 0.5424685478210449, 0.6334812641143799, 0.7244939804077148, 0.8155066967010498, 0.9065194129943848, 0.9975321292877197, 1.0885448455810547, 1.1795578002929688, 1.2705705165863037, 1.3615832328796387, 1.4525959491729736, 1.5436086654663086, 1.6346213817596436, 1.7256340980529785, 1.8166468143463135, 1.907659649848938, 1.998672366142273, 2.0896849632263184, 2.1806979179382324, 2.2717103958129883, 2.3627233505249023, 2.4537360668182373, 2.5447487831115723, 2.6357614994049072, 2.726774215698242, 2.817786931991577, 2.908799648284912, 2.999812602996826, 3.090825080871582, 3.181838035583496, 3.272850751876831, 3.363863468170166, 3.454876184463501, 3.545888900756836]}, "parameters/vgg_block.vgg_block.4.bn.bias": {"_type": "histogram", "values": [2.0, 2.0, 1.0, 3.0, 4.0, 7.0, 4.0, 2.0, 0.0, 2.0, 2.0, 1.0, 1.0, 2.0, 2.0, 2.0, 0.0, 5.0, 3.0, 9.0, 7.0, 4.0, 4.0, 2.0, 2.0, 1.0, 0.0, 2.0, 2.0, 7.0, 4.0, 0.0, 0.0, 0.0, 0.0, 0.0, 1.0, 0.0, 0.0, 2.0, 3.0, 4.0, 1.0, 0.0, 3.0, 2.0, 0.0, 2.0, 3.0, 1.0, 0.0, 0.0, 2.0, 3.0, 2.0, 4.0, 1.0, 1.0, 0.0, 1.0, 1.0, 0.0, 0.0, 2.0], "bins": [-2.8587515354156494, -2.777527093887329, -2.696302652359009, -2.6150784492492676, -2.5338540077209473, -2.452629566192627, -2.3714051246643066, -2.2901806831359863, -2.208956241607666, -2.127732038497925, -2.0465075969696045, -1.9652831554412842, -1.8840587139129639, -1.802834391593933, -1.7216099500656128, -1.640385627746582, -1.5591611862182617, -1.4779367446899414, -1.3967124223709106, -1.3154879808425903, -1.2342636585235596, -1.1530392169952393, -1.071814775466919, -0.9905904531478882, -0.9093660116195679, -0.8281416893005371, -0.7469172477722168, -0.6656928062438965, -0.5844683647155762, -0.5032439231872559, -0.42201972007751465, -0.34079527854919434, -0.259570837020874, -0.1783463954925537, -0.0971219539642334, -0.015897750854492188, 0.06532669067382812, 0.14655113220214844, 0.22777557373046875, 0.30900001525878906, 0.3902243375778198, 0.47144877910614014, 0.5526731014251709, 0.6338975429534912, 0.7151219844818115, 0.7963463068008423, 0.8775707483291626, 0.9587950706481934, 1.0400195121765137, 1.121243953704834, 1.2024682760238647, 1.283692717552185, 1.3649170398712158, 1.4461414813995361, 1.5273659229278564, 1.6085903644561768, 1.6898146867752075, 1.7710390090942383, 1.8522634506225586, 1.933487892150879, 2.014712333679199, 2.0959367752075195, 2.1771609783172607, 2.258385419845581, 2.3396098613739014]}, "parameters/vgg_block.vgg_block.6.conv.weight": {"_type": "histogram", "values": [3.0, 4.0, 49.0, 122.0, 199.0, 284.0, 605.0, 2655.0, 3634.0, 3562.0, 3576.0, 4473.0, 9258.0, 84630.0, 9398.0, 4091.0, 2510.0, 1833.0, 1446.0, 1208.0, 1009.0, 888.0, 852.0, 777.0, 876.0, 949.0, 1469.0, 2161.0, 1991.0, 1903.0, 1855.0, 1837.0, 1925.0, 2196.0, 2173.0, 1569.0, 1249.0, 1065.0, 1108.0, 1126.0, 1199.0, 1358.0, 1361.0, 1696.0, 2112.0, 3182.0, 5429.0, 44490.0, 38769.0, 6717.0, 4677.0, 4895.0, 5690.0, 6627.0, 2817.0, 761.0, 350.0, 165.0, 86.0, 9.0, 2.0, 0.0, 1.0, 1.0], "bins": [-3.5657341480255127, -3.449718952178955, -3.3337037563323975, -3.217688798904419, -3.1016736030578613, -2.9856584072113037, -2.869643211364746, -2.7536282539367676, -2.63761305809021, -2.5215978622436523, -2.4055826663970947, -2.289567470550537, -2.1735525131225586, -2.057537317276001, -1.9415221214294434, -1.8255070447921753, -1.7094918489456177, -1.59347665309906, -1.477461576461792, -1.3614463806152344, -1.2454311847686768, -1.1294162273406982, -1.0134010314941406, -0.897385835647583, -0.7813706398010254, -0.6653554439544678, -0.5493404865264893, -0.43332529067993164, -0.317310094833374, -0.2012948989868164, -0.08527994155883789, 0.030735254287719727, 0.14675045013427734, 0.26276564598083496, 0.3787808418273926, 0.4947957992553711, 0.6108109951019287, 0.7268261909484863, 0.842841386795044, 0.9588563442230225, 1.07487154006958, 1.1908867359161377, 1.3069019317626953, 1.422917127609253, 1.5389320850372314, 1.654947280883789, 1.7709624767303467, 1.8869775533676147, 2.002992630004883, 2.1190080642700195, 2.235023021697998, 2.3510382175445557, 2.4670534133911133, 2.583068370819092, 2.6990835666656494, 2.815098762512207, 2.9311139583587646, 3.0471291542053223, 3.163144111633301, 3.2791593074798584, 3.395174503326416, 3.5111896991729736, 3.627204656600952, 3.7432198524475098, 3.8592350482940674]}, "parameters/vgg_block.vgg_block.6.conv.bias": {"_type": "histogram", "values": [3.0, 1.0, 2.0, 0.0, 3.0, 5.0, 5.0, 4.0, 1.0, 7.0, 9.0, 6.0, 5.0, 3.0, 2.0, 8.0, 6.0, 2.0, 3.0, 3.0, 6.0, 3.0, 8.0, 6.0, 5.0, 3.0, 3.0, 1.0, 7.0, 7.0, 9.0, 5.0, 3.0, 2.0, 6.0, 7.0, 5.0, 9.0, 7.0, 4.0, 6.0, 3.0, 3.0, 5.0, 2.0, 6.0, 1.0, 7.0, 7.0, 5.0, 1.0, 2.0, 0.0, 6.0, 4.0, 0.0, 1.0, 3.0, 2.0, 2.0, 1.0, 1.0, 1.0, 3.0], "bins": [-0.7867903113365173, -0.760430634021759, -0.7340710163116455, -0.7077113389968872, -0.6813517212867737, -0.6549920439720154, -0.6286324262619019, -0.6022727489471436, -0.5759130716323853, -0.5495534539222717, -0.5231938362121582, -0.4968341588973999, -0.4704744815826416, -0.4441148340702057, -0.4177551865577698, -0.39139553904533386, -0.36503589153289795, -0.33867624402046204, -0.3123165965080261, -0.2859569191932678, -0.2595973014831543, -0.233237624168396, -0.20687800645828247, -0.18051832914352417, -0.15415865182876587, -0.12779903411865234, -0.10143935680389404, -0.07507973909378052, -0.04872006177902222, -0.02236044406890869, 0.003999233245849609, 0.030358850955963135, 0.056718528270721436, 0.08307820558547974, 0.10943782329559326, 0.13579750061035156, 0.1621571183204651, 0.1885167956352234, 0.21487641334533691, 0.24123609066009521, 0.26759570837020874, 0.29395538568496704, 0.32031506299972534, 0.34667468070983887, 0.37303435802459717, 0.3993939757347107, 0.425753653049469, 0.4521133005619049, 0.4784729480743408, 0.5048326253890991, 0.5311922430992126, 0.5575518608093262, 0.5839115381240845, 0.6102712154388428, 0.6366308927536011, 0.6629905104637146, 0.6893501281738281, 0.7157098054885864, 0.7420694828033447, 0.7684291005134583, 0.7947887778282166, 0.8211483955383301, 0.8475080728530884, 0.8738676905632019, 0.9002273678779602]}, "parameters/vgg_block.vgg_block.6.bn.weight": {"_type": "histogram", "values": [3.0, 2.0, 3.0, 4.0, 1.0, 2.0, 4.0, 3.0, 10.0, 5.0, 4.0, 4.0, 1.0, 4.0, 3.0, 4.0, 3.0, 4.0, 6.0, 4.0, 9.0, 10.0, 3.0, 3.0, 4.0, 4.0, 0.0, 2.0, 3.0, 5.0, 9.0, 2.0, 6.0, 3.0, 1.0, 1.0, 3.0, 0.0, 0.0, 4.0, 3.0, 4.0, 2.0, 3.0, 4.0, 6.0, 3.0, 2.0, 5.0, 1.0, 6.0, 8.0, 5.0, 8.0, 1.0, 3.0, 1.0, 6.0, 3.0, 5.0, 10.0, 10.0, 7.0, 4.0], "bins": [-2.3112215995788574, -2.216623544692993, -2.122025728225708, -2.0274276733398438, -1.932829737663269, -1.8382318019866943, -1.74363374710083, -1.6490358114242554, -1.5544378757476807, -1.4598398208618164, -1.3652418851852417, -1.270643949508667, -1.1760458946228027, -1.081447958946228, -0.9868500232696533, -0.8922519683837891, -0.7976540327072144, -0.7030560970306396, -0.6084580421447754, -0.5138601064682007, -0.419262170791626, -0.3246641159057617, -0.23006629943847656, -0.1354682445526123, -0.04087018966674805, 0.05372762680053711, 0.14832568168640137, 0.24292373657226562, 0.3375215530395508, 0.43211960792541504, 0.5267176628112793, 0.6213154792785645, 0.7159135341644287, 0.810511589050293, 0.9051094055175781, 0.9997074604034424, 1.0943055152893066, 1.1889033317565918, 1.283501386642456, 1.3780994415283203, 1.4726972579956055, 1.5672953128814697, 1.661893367767334, 1.7564911842346191, 1.8510892391204834, 1.945687174797058, 2.040285110473633, 2.134883165359497, 2.2294812202453613, 2.3240790367126465, 2.4186770915985107, 2.513275146484375, 2.60787296295166, 2.7024710178375244, 2.7970690727233887, 2.891666889190674, 2.986264944076538, 3.0808629989624023, 3.1754608154296875, 3.2700588703155518, 3.364656686782837, 3.459254741668701, 3.5538527965545654, 3.6484506130218506, 3.743048667907715]}, "parameters/vgg_block.vgg_block.6.bn.bias": {"_type": "histogram", "values": [1.0, 1.0, 0.0, 0.0, 2.0, 1.0, 5.0, 10.0, 6.0, 13.0, 11.0, 6.0, 5.0, 5.0, 6.0, 6.0, 7.0, 4.0, 8.0, 5.0, 11.0, 13.0, 7.0, 9.0, 6.0, 3.0, 1.0, 5.0, 5.0, 7.0, 5.0, 5.0, 3.0, 1.0, 5.0, 3.0, 9.0, 3.0, 4.0, 1.0, 4.0, 0.0, 1.0, 3.0, 3.0, 2.0, 2.0, 5.0, 4.0, 2.0, 2.0, 1.0, 0.0, 0.0, 2.0, 0.0, 2.0, 2.0, 3.0, 3.0, 5.0, 1.0, 0.0, 1.0], "bins": [-3.419872760772705, -3.31999135017395, -3.2201099395751953, -3.1202285289764404, -3.0203471183776855, -2.9204659461975098, -2.820584535598755, -2.720703125, -2.620821714401245, -2.5209403038024902, -2.4210588932037354, -2.3211774826049805, -2.2212963104248047, -2.1214146614074707, -2.021533489227295, -1.92165207862854, -1.8217706680297852, -1.7218892574310303, -1.6220078468322754, -1.52212655544281, -1.4222451448440552, -1.3223638534545898, -1.222482442855835, -1.12260103225708, -1.0227196216583252, -0.9228382110595703, -0.8229568004608154, -0.7230753898620605, -0.6231942176818848, -0.5233128070831299, -0.423431396484375, -0.3235499858856201, -0.22366857528686523, -0.12378716468811035, -0.02390575408935547, 0.07597565650939941, 0.1758570671081543, 0.2757382392883301, 0.37561964988708496, 0.47550106048583984, 0.5753824710845947, 0.6752638816833496, 0.7751452922821045, 0.8750267028808594, 0.9749079942703247, 1.0747894048690796, 1.174670696258545, 1.2745521068572998, 1.3744335174560547, 1.4743149280548096, 1.5741963386535645, 1.6740776300430298, 1.7739590406417847, 1.8738404512405396, 1.9737217426300049, 2.0736031532287598, 2.1734845638275146, 2.2733659744262695, 2.3732473850250244, 2.4731287956237793, 2.573009967803955, 2.67289137840271, 2.772772789001465, 2.8726541996002197, 2.9725356101989746]}, "parameters/vgg_block.vgg_block.7.conv.weight": {"_type": "histogram", "values": [6.0, 9.0, 57.0, 181.0, 274.0, 477.0, 930.0, 2325.0, 3685.0, 4070.0, 5003.0, 7367.0, 15055.0, 183335.0, 26584.0, 9673.0, 5867.0, 4158.0, 3068.0, 2533.0, 2086.0, 1836.0, 1646.0, 1517.0, 1441.0, 1324.0, 1319.0, 1423.0, 1568.0, 1567.0, 1558.0, 1608.0, 1628.0, 1640.0, 1653.0, 1436.0, 1427.0, 1359.0, 1454.0, 1479.0, 1619.0, 1841.0, 2208.0, 2565.0, 3315.0, 4594.0, 7341.0, 16424.0, 173193.0, 26369.0, 11270.0, 7656.0, 6233.0, 6035.0, 5715.0, 3727.0, 1946.0, 1178.0, 637.0, 289.0, 29.0, 5.0, 7.0, 2.0], "bins": [-3.562774658203125, -3.4483139514923096, -3.3338534832000732, -3.219392776489258, -3.1049323081970215, -2.990471601486206, -2.8760108947753906, -2.7615504264831543, -2.647089958190918, -2.5326292514801025, -2.418168544769287, -2.303708076477051, -2.1892473697662354, -2.07478666305542, -1.9603261947631836, -1.8458656072616577, -1.7314050197601318, -1.616944432258606, -1.50248384475708, -1.3880231380462646, -1.2735626697540283, -1.159101963043213, -1.0446414947509766, -0.9301807880401611, -0.8157200813293457, -0.7012596130371094, -0.586798906326294, -0.4723384380340576, -0.3578777313232422, -0.24341726303100586, -0.12895655632019043, -0.014496088027954102, 0.09996438026428223, 0.21442508697509766, 0.328885555267334, 0.4433462619781494, 0.5578067302703857, 0.6722674369812012, 0.7867279052734375, 0.9011886119842529, 1.0156490802764893, 1.1301097869873047, 1.2445704936981201, 1.3590309619903564, 1.4734916687011719, 1.5879521369934082, 1.7024128437042236, 1.8168734312057495, 1.9313340187072754, 2.0457944869995117, 2.160255193710327, 2.2747159004211426, 2.389176368713379, 2.5036370754241943, 2.6180977821350098, 2.732558250427246, 2.8470187187194824, 2.961479425430298, 3.0759401321411133, 3.1904006004333496, 3.304861307144165, 3.4193217754364014, 3.533782482147217, 3.648242950439453, 3.7627036571502686]}, "parameters/vgg_block.vgg_block.7.conv.bias": {"_type": "histogram", "values": [1.0, 0.0, 0.0, 0.0, 1.0, 2.0, 2.0, 0.0, 2.0, 2.0, 4.0, 1.0, 5.0, 7.0, 2.0, 1.0, 7.0, 3.0, 6.0, 3.0, 6.0, 11.0, 4.0, 7.0, 5.0, 3.0, 13.0, 2.0, 4.0, 2.0, 6.0, 1.0, 1.0, 14.0, 12.0, 0.0, 1.0, 7.0, 4.0, 2.0, 8.0, 9.0, 3.0, 6.0, 1.0, 6.0, 14.0, 3.0, 3.0, 3.0, 3.0, 4.0, 6.0, 2.0, 5.0, 4.0, 1.0, 3.0, 5.0, 4.0, 0.0, 4.0, 1.0, 4.0], "bins": [-1.0030150413513184, -0.973468005657196, -0.9439210295677185, -0.9143739938735962, -0.8848270177841187, -0.8552799820899963, -0.825732946395874, -0.7961859703063965, -0.7666389346122742, -0.7370918989181519, -0.7075449228286743, -0.677997887134552, -0.6484508514404297, -0.6189038753509521, -0.5893568396568298, -0.5598098039627075, -0.53026282787323, -0.5007157921791077, -0.4711688160896301, -0.4416217803955078, -0.4120748043060303, -0.38252776861190796, -0.35298073291778564, -0.3234337568283081, -0.2938867211341858, -0.2643396854400635, -0.23479270935058594, -0.20524567365646362, -0.1756986379623413, -0.14615166187286377, -0.11660462617874146, -0.08705765008926392, -0.05751067399978638, -0.027963638305664062, 0.0015833377838134766, 0.03113037347793579, 0.06067734956741333, 0.09022438526153564, 0.11977142095565796, 0.1493183970451355, 0.1788654327392578, 0.20841246843338013, 0.23795944452285767, 0.26750648021698, 0.2970535159111023, 0.32660049200057983, 0.35614752769470215, 0.3856945037841797, 0.415241539478302, 0.44478854537010193, 0.47433555126190186, 0.5038825869560242, 0.5334296226501465, 0.562976598739624, 0.5925236344337463, 0.6220706701278687, 0.6516176462173462, 0.6811646223068237, 0.710711658000946, 0.7402586936950684, 0.7698056697845459, 0.7993527054786682, 0.8288997411727905, 0.8584467172622681, 0.8879937529563904]}, "parameters/vgg_block.vgg_block.7.bn.weight": {"_type": "histogram", "values": [4.0, 4.0, 4.0, 4.0, 9.0, 6.0, 7.0, 8.0, 0.0, 2.0, 3.0, 4.0, 3.0, 2.0, 4.0, 3.0, 2.0, 6.0, 7.0, 2.0, 3.0, 4.0, 5.0, 4.0, 5.0, 2.0, 2.0, 3.0, 10.0, 10.0, 7.0, 4.0, 6.0, 0.0, 4.0, 4.0, 1.0, 6.0, 5.0, 2.0, 3.0, 1.0, 9.0, 5.0, 5.0, 6.0, 8.0, 5.0, 4.0, 6.0, 0.0, 2.0, 2.0, 1.0, 2.0, 7.0, 8.0, 1.0, 5.0, 1.0, 3.0, 0.0, 0.0, 1.0], "bins": [-2.2125473022460938, -2.1117589473724365, -2.0109705924987793, -1.9101821184158325, -1.8093937635421753, -1.708605408668518, -1.6078169345855713, -1.507028579711914, -1.4062402248382568, -1.3054518699645996, -1.2046635150909424, -1.1038750410079956, -1.0030866861343384, -0.9022983312606812, -0.8015098571777344, -0.7007215023040771, -0.5999331474304199, -0.4991447925567627, -0.39835643768310547, -0.2975679636001587, -0.19677972793579102, -0.09599113464355469, 0.004797220230102539, 0.10558557510375977, 0.206373929977417, 0.3071622848510742, 0.40795063972473145, 0.5087389945983887, 0.609527587890625, 0.7103159427642822, 0.8111042976379395, 0.9118926525115967, 1.012681007385254, 1.1134693622589111, 1.2142577171325684, 1.3150460720062256, 1.4158344268798828, 1.5166230201721191, 1.6174113750457764, 1.7181997299194336, 1.8189880847930908, 1.919776439666748, 2.0205647945404053, 2.1213531494140625, 2.222141742706299, 2.322929859161377, 2.4237184524536133, 2.5245068073272705, 2.6252951622009277, 2.726083517074585, 2.826871871948242, 2.9276604652404785, 3.0284485816955566, 3.129237174987793, 3.23002552986145, 3.3308138847351074, 3.4316022396087646, 3.532390594482422, 3.633178949356079, 3.7339673042297363, 3.8347558975219727, 3.93554425239563, 4.036332607269287, 4.137120723724365, 4.237909317016602]}, "parameters/vgg_block.vgg_block.7.bn.bias": {"_type": "histogram", "values": [2.0, 0.0, 3.0, 3.0, 3.0, 2.0, 12.0, 9.0, 11.0, 5.0, 3.0, 9.0, 1.0, 7.0, 9.0, 9.0, 13.0, 21.0, 13.0, 12.0, 13.0, 9.0, 5.0, 3.0, 7.0, 4.0, 1.0, 3.0, 2.0, 0.0, 1.0, 6.0, 1.0, 0.0, 3.0, 2.0, 1.0, 0.0, 2.0, 4.0, 2.0, 2.0, 3.0, 3.0, 2.0, 2.0, 3.0, 4.0, 7.0, 2.0, 4.0, 0.0, 2.0, 3.0, 0.0, 0.0, 1.0, 0.0, 0.0, 0.0, 0.0, 0.0, 0.0, 2.0], "bins": [-3.411731243133545, -3.3110625743865967, -3.2103939056396484, -3.1097252368927, -3.009056568145752, -2.9083878993988037, -2.8077192306518555, -2.7070508003234863, -2.606381893157959, -2.50571346282959, -2.4050445556640625, -2.3043761253356934, -2.203707456588745, -2.103038787841797, -2.0023701190948486, -1.9017014503479004, -1.8010327816009521, -1.700364112854004, -1.5996954441070557, -1.4990267753601074, -1.3983581066131592, -1.297689437866211, -1.1970207691192627, -1.0963521003723145, -0.9956836700439453, -0.8950150012969971, -0.7943463325500488, -0.6936776638031006, -0.5930089950561523, -0.4923403263092041, -0.39167165756225586, -0.2910029888153076, -0.19033408164978027, -0.08966541290283203, 0.011003255844116211, 0.11167192459106445, 0.2123405933380127, 0.31300926208496094, 0.4136779308319092, 0.5143465995788574, 0.6150152683258057, 0.7156836986541748, 0.816352367401123, 0.9170210361480713, 1.0176897048950195, 1.1183583736419678, 1.219027042388916, 1.3196957111358643, 1.4203643798828125, 1.5210330486297607, 1.621701717376709, 1.7223703861236572, 1.8230390548706055, 1.9237076044082642, 2.024376392364502, 2.125044822692871, 2.2257137298583984, 2.3263821601867676, 2.427051067352295, 2.527719497680664, 2.6283881664276123, 2.7290568351745605, 2.829725503921509, 2.930394172668457, 3.0310628414154053]}, "parameters/vgg_block.vgg_block.8.conv.weight": {"_type": "histogram", "values": [4.0, 8.0, 19.0, 83.0, 118.0, 224.0, 443.0, 1122.0, 1649.0, 2212.0, 3140.0, 5101.0, 10705.0, 134277.0, 86560.0, 14606.0, 7671.0, 5070.0, 3500.0, 2600.0, 2075.0, 1765.0, 1375.0, 1265.0, 1085.0, 1010.0, 931.0, 812.0, 867.0, 862.0, 795.0, 839.0, 764.0, 809.0, 777.0, 751.0, 794.0, 799.0, 821.0, 876.0, 994.0, 1083.0, 1270.0, 1611.0, 2034.0, 2719.0, 4160.0, 7535.0, 19242.0, 180632.0, 30607.0, 12426.0, 7548.0, 5228.0, 4115.0, 3325.0, 2259.0, 1490.0, 1079.0, 761.0, 441.0, 63.0, 14.0, 4.0], "bins": [-3.563838481903076, -3.4514260292053223, -3.3390135765075684, -3.2266011238098145, -3.1141886711120605, -3.0017762184143066, -2.8893635272979736, -2.7769510746002197, -2.664538621902466, -2.552126169204712, -2.439713716506958, -2.327301025390625, -2.214888572692871, -2.102476119995117, -1.9900636672973633, -1.8776512145996094, -1.7652387619018555, -1.6528263092041016, -1.5404138565063477, -1.4280014038085938, -1.3155889511108398, -1.2031762599945068, -1.090763807296753, -0.978351354598999, -0.8659389019012451, -0.7535264492034912, -0.6411139965057373, -0.5287015438079834, -0.4162888526916504, -0.3038763999938965, -0.19146394729614258, -0.07905149459838867, 0.033361196517944336, 0.14577364921569824, 0.25818610191345215, 0.37059855461120605, 0.48301100730895996, 0.595423698425293, 0.7078361511230469, 0.8202486038208008, 0.9326610565185547, 1.0450735092163086, 1.1574859619140625, 1.2698984146118164, 1.3823111057281494, 1.4947235584259033, 1.6071360111236572, 1.7195484638214111, 1.831960916519165, 1.944373369216919, 2.056785821914673, 2.169198513031006, 2.2816109657287598, 2.3940234184265137, 2.5064358711242676, 2.6188483238220215, 2.7312607765197754, 2.8436732292175293, 2.956085681915283, 3.068498134613037, 3.180910587310791, 3.293323278427124, 3.405735731124878, 3.518148183822632, 3.6305606365203857]}, "parameters/vgg_block.vgg_block.8.conv.bias": {"_type": "histogram", "values": [1.0, 1.0, 0.0, 0.0, 0.0, 0.0, 1.0, 4.0, 1.0, 4.0, 9.0, 1.0, 0.0, 4.0, 7.0, 2.0, 3.0, 5.0, 5.0, 11.0, 8.0, 4.0, 6.0, 9.0, 9.0, 12.0, 8.0, 3.0, 7.0, 7.0, 2.0, 1.0, 8.0, 13.0, 6.0, 4.0, 6.0, 5.0, 5.0, 5.0, 5.0, 5.0, 3.0, 4.0, 7.0, 3.0, 7.0, 7.0, 1.0, 2.0, 0.0, 8.0, 2.0, 3.0, 0.0, 4.0, 2.0, 1.0, 2.0, 0.0, 0.0, 0.0, 2.0, 1.0], "bins": [-0.9066513180732727, -0.879408597946167, -0.8521658182144165, -0.8249230980873108, -0.7976803779602051, -0.7704375982284546, -0.7431948781013489, -0.7159521579742432, -0.6887093782424927, -0.6614665985107422, -0.6342238783836365, -0.6069811582565308, -0.5797383785247803, -0.5524956583976746, -0.5252529382705688, -0.49801018834114075, -0.47076743841171265, -0.44352468848228455, -0.41628193855285645, -0.38903921842575073, -0.36179643869400024, -0.33455371856689453, -0.3073109984397888, -0.28006821870803833, -0.2528254985809326, -0.2255827784538269, -0.19833999872207642, -0.1710972785949707, -0.143854558467865, -0.1166117787361145, -0.08936905860900879, -0.0621262788772583, -0.03488349914550781, -0.0076407790184021, 0.01960200071334839, 0.0468447208404541, 0.07408750057220459, 0.1013302206993103, 0.12857294082641602, 0.1558157205581665, 0.18305844068527222, 0.21030116081237793, 0.23754394054412842, 0.26478666067123413, 0.29202938079833984, 0.31927216053009033, 0.34651488065719604, 0.37375763058662415, 0.40100038051605225, 0.42824313044548035, 0.45548588037490845, 0.48272860050201416, 0.5099713802337646, 0.5372141003608704, 0.5644568204879761, 0.5916996002197266, 0.6189423203468323, 0.646185040473938, 0.6734278202056885, 0.7006705403327942, 0.7279132604598999, 0.7551560401916504, 0.7823987603187561, 0.8096415400505066, 0.8368842601776123]}, "parameters/vgg_block.vgg_block.8.bn.weight": {"_type": "histogram", "values": [3.0, 3.0, 1.0, 0.0, 8.0, 4.0, 5.0, 6.0, 6.0, 5.0, 0.0, 3.0, 4.0, 3.0, 2.0, 3.0, 4.0, 7.0, 5.0, 8.0, 5.0, 3.0, 5.0, 6.0, 5.0, 5.0, 6.0, 5.0, 5.0, 3.0, 6.0, 2.0, 7.0, 4.0, 11.0, 3.0, 7.0, 4.0, 6.0, 7.0, 4.0, 7.0, 7.0, 6.0, 0.0, 1.0, 6.0, 4.0, 3.0, 4.0, 3.0, 2.0, 0.0, 2.0, 4.0, 1.0, 3.0, 6.0, 2.0, 5.0, 0.0, 0.0, 0.0, 1.0], "bins": [-2.4213783740997314, -2.3147780895233154, -2.2081780433654785, -2.1015777587890625, -1.9949774742126465, -1.8883771896362305, -1.781777024269104, -1.6751768589019775, -1.5685765743255615, -1.4619762897491455, -1.355376124382019, -1.2487759590148926, -1.1421756744384766, -1.0355753898620605, -0.9289752244949341, -0.8223750591278076, -0.7157747745513916, -0.6091744899749756, -0.5025743246078491, -0.39597415924072266, -0.28937387466430664, -0.18277359008789062, -0.07617354393005371, 0.030426740646362305, 0.13702702522277832, 0.24362730979919434, 0.35022759437561035, 0.45682764053344727, 0.5634279251098633, 0.6700282096862793, 0.7766282558441162, 0.8832285404205322, 0.9898285865783691, 1.0964288711547852, 1.2030291557312012, 1.309629201889038, 1.416229486465454, 1.5228297710418701, 1.629429817199707, 1.736030101776123, 1.842630386352539, 1.949230670928955, 2.055830955505371, 2.162431001663208, 2.269031286239624, 2.37563157081604, 2.482231616973877, 2.588831901550293, 2.695432186126709, 2.802032470703125, 2.908632755279541, 3.015232801437378, 3.121833086013794, 3.22843337059021, 3.335033416748047, 3.441633701324463, 3.548233985900879, 3.654834270477295, 3.761434555053711, 3.868034601211548, 3.974634885787964, 4.081234931945801, 4.187835216522217, 4.294435501098633, 4.401035785675049]}, "parameters/vgg_block.vgg_block.8.bn.bias": {"_type": "histogram", "values": [4.0, 0.0, 1.0, 4.0, 8.0, 8.0, 8.0, 14.0, 11.0, 9.0, 3.0, 4.0, 1.0, 5.0, 5.0, 3.0, 8.0, 0.0, 4.0, 3.0, 25.0, 25.0, 14.0, 10.0, 10.0, 9.0, 5.0, 7.0, 3.0, 2.0, 4.0, 0.0, 1.0, 0.0, 2.0, 2.0, 2.0, 0.0, 0.0, 0.0, 0.0, 3.0, 1.0, 0.0, 2.0, 1.0, 2.0, 3.0, 5.0, 6.0, 3.0, 1.0, 2.0, 0.0, 1.0, 0.0, 0.0, 1.0, 0.0, 0.0, 0.0, 0.0, 0.0, 1.0], "bins": [-3.181790351867676, -3.118060827255249, -3.054331064224243, -2.9906015396118164, -2.9268717765808105, -2.863142251968384, -2.799412727355957, -2.735682964324951, -2.6719534397125244, -2.6082236766815186, -2.544494152069092, -2.480764389038086, -2.417034864425659, -2.3533053398132324, -2.2895755767822266, -2.2258460521698, -2.162116527557373, -2.098386764526367, -2.0346570014953613, -1.9709275960922241, -1.9071979522705078, -1.8434683084487915, -1.7797386646270752, -1.7160090208053589, -1.6522793769836426, -1.5885498523712158, -1.5248202085494995, -1.4610905647277832, -1.397360920906067, -1.3336312770843506, -1.2699017524719238, -1.2061721086502075, -1.142442226409912, -1.0787127017974854, -1.0149829387664795, -0.9512534737586975, -0.8875238299369812, -0.8237941861152649, -0.7600645422935486, -0.6963348984718323, -0.6326053738594055, -0.5688757300376892, -0.5051460862159729, -0.4414164423942566, -0.3776867985725403, -0.313957154750824, -0.2502276301383972, -0.1864979863166809, -0.1227683424949646, -0.05903869867324829, 0.004690885543823242, 0.06842052936553955, 0.13215011358261108, 0.1958797574043274, 0.2596094012260437, 0.32333898544311523, 0.38706862926483154, 0.45079824328422546, 0.5145278573036194, 0.5782575011253357, 0.6419870853424072, 0.7057167291641235, 0.7694463729858398, 0.8331759572029114, 0.8969056010246277]}, "parameters/vgg_block.vgg_block.10.conv.weight": {"_type": "histogram", "values": [5.0, 4.0, 13.0, 75.0, 158.0, 230.0, 314.0, 826.0, 1953.0, 2137.0, 3004.0, 4877.0, 9852.0, 40488.0, 445140.0, 40960.0, 15179.0, 8299.0, 5205.0, 3617.0, 2696.0, 2125.0, 1749.0, 1600.0, 1326.0, 1182.0, 1047.0, 953.0, 918.0, 848.0, 807.0, 752.0, 824.0, 755.0, 742.0, 795.0, 797.0, 833.0, 909.0, 960.0, 1067.0, 1250.0, 1338.0, 1750.0, 2336.0, 3867.0, 6683.0, 16761.0, 192361.0, 276975.0, 31521.0, 13681.0, 8032.0, 5369.0, 3986.0, 3037.0, 1767.0, 1255.0, 819.0, 541.0, 220.0, 60.0, 15.0, 3.0], "bins": [-3.654547929763794, -3.539220094680786, -3.4238924980163574, -3.3085646629333496, -3.193236827850342, -3.077908992767334, -2.9625813961029053, -2.8472535610198975, -2.7319259643554688, -2.616598129272461, -2.501270294189453, -2.3859424591064453, -2.2706148624420166, -2.155287027359009, -2.03995943069458, -1.9246314764022827, -1.8093037605285645, -1.6939760446548462, -1.578648328781128, -1.4633204936981201, -1.3479926586151123, -1.2326650619506836, -1.1173372268676758, -1.002009391784668, -0.8866817951202393, -0.7713539600372314, -0.6560261249542236, -0.5406982898712158, -0.4253706932067871, -0.3100428581237793, -0.19471502304077148, -0.07938742637634277, 0.03594040870666504, 0.15126824378967285, 0.26659584045410156, 0.3819236755371094, 0.4972515106201172, 0.6125791072845459, 0.7279069423675537, 0.8432347774505615, 0.9585626125335693, 1.073890209197998, 1.1892180442810059, 1.3045458793640137, 1.4198734760284424, 1.5352013111114502, 1.650529146194458, 1.7658568620681763, 1.8811845779418945, 1.9965122938156128, 2.11184024810791, 2.227167844772339, 2.3424956798553467, 2.4578232765197754, 2.573151111602783, 2.688478946685791, 2.803806781768799, 2.9191343784332275, 3.0344622135162354, 3.149789810180664, 3.265117645263672, 3.3804454803466797, 3.4957733154296875, 3.611100912094116, 3.726428747177124]}, "parameters/vgg_block.vgg_block.10.conv.bias": {"_type": "histogram", "values": [1.0, 1.0, 0.0, 0.0, 0.0, 2.0, 0.0, 3.0, 5.0, 2.0, 4.0, 5.0, 5.0, 7.0, 8.0, 6.0, 6.0, 17.0, 18.0, 12.0, 12.0, 7.0, 22.0, 12.0, 17.0, 14.0, 10.0, 4.0, 17.0, 21.0, 26.0, 10.0, 15.0, 12.0, 19.0, 24.0, 17.0, 10.0, 7.0, 10.0, 25.0, 24.0, 12.0, 7.0, 10.0, 12.0, 5.0, 4.0, 4.0, 7.0, 4.0, 5.0, 2.0, 0.0, 0.0, 1.0, 0.0, 1.0, 0.0, 0.0, 0.0, 0.0, 0.0, 1.0], "bins": [-0.5256069898605347, -0.5077972412109375, -0.4899875223636627, -0.47217777371406555, -0.45436805486679077, -0.4365583062171936, -0.41874855756759644, -0.40093880891799927, -0.3831290900707245, -0.3653193712234497, -0.34750962257385254, -0.32969987392425537, -0.3118901252746582, -0.2940804064273834, -0.27627065777778625, -0.2584609389305115, -0.2406511902809143, -0.22284144163131714, -0.20503172278404236, -0.1872219741344452, -0.1694122552871704, -0.15160250663757324, -0.13379275798797607, -0.1159830391407013, -0.09817329049110413, -0.08036354184150696, -0.06255382299423218, -0.04474407434463501, -0.026934325695037842, -0.009124577045440674, 0.008685111999511719, 0.026494860649108887, 0.04430466890335083, 0.062114417552948, 0.07992416620254517, 0.09773385524749756, 0.11554360389709473, 0.1333533525466919, 0.15116310119628906, 0.16897282004356384, 0.186782568693161, 0.20459231734275818, 0.22240203619003296, 0.24021178483963013, 0.2580215334892273, 0.2758312523365021, 0.29364100098609924, 0.311450719833374, 0.3292604684829712, 0.34707021713256836, 0.36487993597984314, 0.3826896846294403, 0.4004994034767151, 0.41830915212631226, 0.4361189007759094, 0.4539286494255066, 0.47173836827278137, 0.48954808712005615, 0.5073578357696533, 0.5251675844192505, 0.5429773330688477, 0.5607870817184448, 0.5785967707633972, 0.5964065194129944, 0.6142162680625916]}, "parameters/vgg_block.vgg_block.10.bn.weight": {"_type": "histogram", "values": [2.0, 6.0, 6.0, 5.0, 5.0, 3.0, 3.0, 5.0, 3.0, 11.0, 5.0, 8.0, 7.0, 9.0, 15.0, 1.0, 7.0, 7.0, 12.0, 7.0, 9.0, 5.0, 12.0, 8.0, 3.0, 12.0, 8.0, 12.0, 8.0, 9.0, 13.0, 10.0, 15.0, 10.0, 8.0, 11.0, 11.0, 16.0, 14.0, 15.0, 11.0, 10.0, 16.0, 11.0, 10.0, 8.0, 8.0, 7.0, 10.0, 12.0, 7.0, 13.0, 12.0, 4.0, 9.0, 2.0, 3.0, 8.0, 7.0, 5.0, 1.0, 0.0, 1.0, 1.0], "bins": [-2.3331778049468994, -2.2230374813079834, -2.1128971576690674, -2.0027568340301514, -1.8926163911819458, -1.7824760675430298, -1.6723356246948242, -1.5621953010559082, -1.4520549774169922, -1.3419146537780762, -1.2317743301391602, -1.1216338872909546, -1.0114935636520386, -0.9013532400131226, -0.791212797164917, -0.681072473526001, -0.570932149887085, -0.46079182624816895, -0.35065150260925293, -0.24051117897033691, -0.1303708553314209, -0.02023029327392578, 0.08991003036499023, 0.20005035400390625, 0.31019067764282227, 0.4203310012817383, 0.5304713249206543, 0.6406116485595703, 0.7507522106170654, 0.8608925342559814, 0.9710328578948975, 1.0811731815338135, 1.1913132667541504, 1.3014535903930664, 1.4115939140319824, 1.5217342376708984, 1.6318745613098145, 1.7420151233673096, 1.8521554470062256, 1.9622957706451416, 2.0724360942840576, 2.1825764179229736, 2.2927167415618896, 2.4028570652008057, 2.512997627258301, 2.623137950897217, 2.733278274536133, 2.843418598175049, 2.953558921813965, 3.063699245452881, 3.173839569091797, 3.283979892730713, 3.394120216369629, 3.504260540008545, 3.61440110206604, 3.724541425704956, 3.834681749343872, 3.944822072982788, 4.054962635040283, 4.165102958679199, 4.275243282318115, 4.385383605957031, 4.495523929595947, 4.605664253234863, 4.715804576873779]}, "parameters/vgg_block.vgg_block.10.bn.bias": {"_type": "histogram", "values": [1.0, 1.0, 1.0, 1.0, 16.0, 9.0, 14.0, 15.0, 17.0, 9.0, 14.0, 11.0, 9.0, 17.0, 8.0, 19.0, 11.0, 32.0, 53.0, 37.0, 22.0, 17.0, 13.0, 17.0, 19.0, 15.0, 11.0, 14.0, 4.0, 8.0, 7.0, 12.0, 9.0, 3.0, 9.0, 4.0, 10.0, 3.0, 2.0, 2.0, 2.0, 1.0, 3.0, 1.0, 1.0, 0.0, 1.0, 1.0, 0.0, 0.0, 0.0, 0.0, 1.0, 1.0, 0.0, 1.0, 0.0, 0.0, 1.0, 0.0, 0.0, 1.0, 0.0, 1.0], "bins": [-3.2755167484283447, -3.194502353668213, -3.113487720489502, -3.03247332572937, -2.9514589309692383, -2.8704442977905273, -2.7894299030303955, -2.7084155082702637, -2.6274008750915527, -2.546386480331421, -2.465372085571289, -2.384357452392578, -2.3033430576324463, -2.2223286628723145, -2.1413140296936035, -2.060299873352051, -1.9792852401733398, -1.8982707262039185, -1.8172563314437866, -1.7362418174743652, -1.6552274227142334, -1.574212908744812, -1.4931983947753906, -1.4121840000152588, -1.3311694860458374, -1.250154972076416, -1.1691405773162842, -1.0881261825561523, -1.0071115493774414, -0.9260971546173096, -0.8450827598571777, -0.7640681266784668, -0.6830534934997559, -0.602039098739624, -0.5210244655609131, -0.44001007080078125, -0.3589956760406494, -0.2779810428619385, -0.19696664810180664, -0.1159522533416748, -0.03493773937225342, 0.04607677459716797, 0.1270911693572998, 0.2081056833267212, 0.2891201972961426, 0.3701345920562744, 0.4511491060256958, 0.5321635007858276, 0.613178014755249, 0.6941925287246704, 0.7752069234848022, 0.8562214374542236, 0.9372358918190002, 1.0182503461837769, 1.0992648601531982, 1.18027925491333, 1.2612937688827515, 1.3423082828521729, 1.4233226776123047, 1.504337191581726, 1.5853517055511475, 1.6663661003112793, 1.7473806142807007, 1.8283950090408325, 1.909409523010254]}, "parameters/vgg_block.vgg_block.11.conv.weight": {"_type": "histogram", "values": [6.0, 6.0, 56.0, 123.0, 206.0, 311.0, 508.0, 1740.0, 3679.0, 4338.0, 5940.0, 9892.0, 21818.0, 116857.0, 792034.0, 83291.0, 37206.0, 21700.0, 14153.0, 10089.0, 7776.0, 6145.0, 5057.0, 4403.0, 3759.0, 3389.0, 3079.0, 2748.0, 2559.0, 2399.0, 2328.0, 2310.0, 2052.0, 2134.0, 2172.0, 2167.0, 2218.0, 2354.0, 2447.0, 2497.0, 2672.0, 2498.0, 2713.0, 3705.0, 5688.0, 9809.0, 22558.0, 112942.0, 785174.0, 95864.0, 43542.0, 26762.0, 19571.0, 16935.0, 13256.0, 4145.0, 1837.0, 950.0, 488.0, 160.0, 57.0, 14.0, 6.0, 4.0], "bins": [-3.6600537300109863, -3.542581796646118, -3.42510986328125, -3.307638168334961, -3.1901662349700928, -3.0726943016052246, -2.9552226066589355, -2.8377506732940674, -2.720278739929199, -2.602806806564331, -2.485334873199463, -2.367863178253174, -2.2503912448883057, -2.1329193115234375, -2.0154476165771484, -1.8979756832122803, -1.780503749847412, -1.663031816482544, -1.5455598831176758, -1.4280881881713867, -1.3106162548065186, -1.1931443214416504, -1.0756726264953613, -0.9582006931304932, -0.840728759765625, -0.7232568264007568, -0.6057848930358887, -0.4883131980895996, -0.37084126472473145, -0.2533693313598633, -0.13589763641357422, -0.018425703048706055, 0.09904599189758301, 0.21651792526245117, 0.33398985862731934, 0.4514615535736084, 0.5689334869384766, 0.6864054203033447, 0.8038771152496338, 0.921349048614502, 1.0388209819793701, 1.1562929153442383, 1.2737648487091064, 1.3912365436553955, 1.5087084770202637, 1.6261804103851318, 1.743652105331421, 1.861124038696289, 1.9785959720611572, 2.0960679054260254, 2.2135396003723145, 2.3310115337371826, 2.448483467102051, 2.565955400466919, 2.683427333831787, 2.800899028778076, 2.9183709621429443, 3.0358428955078125, 3.1533145904541016, 3.2707865238189697, 3.388258457183838, 3.505730390548706, 3.623202323913574, 3.7406740188598633, 3.8581459522247314]}, "parameters/vgg_block.vgg_block.11.conv.bias": {"_type": "histogram", "values": [1.0, 4.0, 2.0, 1.0, 1.0, 1.0, 3.0, 4.0, 3.0, 8.0, 4.0, 4.0, 7.0, 14.0, 11.0, 11.0, 10.0, 13.0, 13.0, 8.0, 5.0, 9.0, 12.0, 25.0, 14.0, 5.0, 18.0, 3.0, 19.0, 42.0, 20.0, 8.0, 18.0, 5.0, 11.0, 18.0, 9.0, 3.0, 10.0, 3.0, 28.0, 27.0, 11.0, 6.0, 5.0, 14.0, 8.0, 1.0, 3.0, 11.0, 6.0, 1.0, 1.0, 3.0, 1.0, 1.0, 2.0, 2.0, 0.0, 0.0, 0.0, 0.0, 0.0, 1.0], "bins": [-0.546200692653656, -0.5277416110038757, -0.5092825293540955, -0.4908234477043152, -0.4723643660545349, -0.45390528440475464, -0.43544623255729675, -0.4169871509075165, -0.3985280692577362, -0.38006898760795593, -0.36160990595817566, -0.3431508541107178, -0.3246917724609375, -0.3062326908111572, -0.28777360916137695, -0.2693145275115967, -0.2508554458618164, -0.23239636421203613, -0.21393728256225586, -0.19547820091247559, -0.1770191192626953, -0.15856006741523743, -0.14010098576545715, -0.12164190411567688, -0.1031828224658966, -0.08472374081611633, -0.06626465916633606, -0.047805577516555786, -0.0293465256690979, -0.010887444019317627, 0.0075716376304626465, 0.02603071928024292, 0.04448974132537842, 0.06294882297515869, 0.08140790462493896, 0.09986698627471924, 0.11832606792449951, 0.1367851197719574, 0.15524420142173767, 0.17370328307151794, 0.19216236472129822, 0.2106214463710785, 0.22908052802085876, 0.24753960967063904, 0.2659986615180969, 0.2844577431678772, 0.30291682481765747, 0.32137590646743774, 0.339834988117218, 0.3582940697669983, 0.37675315141677856, 0.39521223306655884, 0.4136713147163391, 0.4321303963661194, 0.45058944821357727, 0.46904852986335754, 0.4875076115131378, 0.5059666633605957, 0.524425745010376, 0.5428848266601562, 0.5613439083099365, 0.5798029899597168, 0.5982620716094971, 0.6167211532592773, 0.6351802349090576]}, "parameters/vgg_block.vgg_block.11.bn.weight": {"_type": "histogram", "values": [2.0, 4.0, 2.0, 4.0, 4.0, 9.0, 3.0, 2.0, 4.0, 3.0, 6.0, 6.0, 7.0, 6.0, 11.0, 9.0, 2.0, 9.0, 5.0, 10.0, 21.0, 29.0, 10.0, 15.0, 11.0, 8.0, 2.0, 3.0, 7.0, 4.0, 3.0, 5.0, 9.0, 1.0, 7.0, 8.0, 7.0, 7.0, 5.0, 20.0, 11.0, 23.0, 18.0, 20.0, 9.0, 2.0, 3.0, 2.0, 4.0, 11.0, 7.0, 23.0, 32.0, 33.0, 11.0, 3.0, 1.0, 1.0, 1.0, 1.0, 0.0, 2.0, 3.0, 1.0], "bins": [-2.3500654697418213, -2.2448043823242188, -2.139543294906616, -2.0342822074890137, -1.929020881652832, -1.8237597942352295, -1.718498706817627, -1.6132376194000244, -1.5079764127731323, -1.4027152061462402, -1.2974541187286377, -1.1921930313110352, -1.0869319438934326, -0.9816707372665405, -0.876409649848938, -0.7711484432220459, -0.6658873558044434, -0.5606262683868408, -0.45536506175994873, -0.3501039743423462, -0.2448427677154541, -0.13958168029785156, -0.03432059288024902, 0.07094049453735352, 0.17620158195495605, 0.2814629077911377, 0.38672399520874023, 0.4919850826263428, 0.5972461700439453, 0.7025072574615479, 0.8077685832977295, 0.913029670715332, 1.0182909965515137, 1.1235520839691162, 1.2288131713867188, 1.3340744972229004, 1.439335584640503, 1.5445966720581055, 1.649857759475708, 1.7551188468933105, 1.8603801727294922, 1.9656412601470947, 2.0709023475646973, 2.1761634349823, 2.2814245223999023, 2.386685848236084, 2.4919466972351074, 2.597208023071289, 2.7024691104888916, 2.807730197906494, 2.912991523742676, 3.018252372741699, 3.123513698577881, 3.2287747859954834, 3.334035873413086, 3.4392969608306885, 3.544558048248291, 3.6498193740844727, 3.755080461502075, 3.8603415489196777, 3.9656026363372803, 4.070863723754883, 4.1761250495910645, 4.281385898590088, 4.3866472244262695]}, "parameters/vgg_block.vgg_block.11.bn.bias": {"_type": "histogram", "values": [1.0, 0.0, 1.0, 0.0, 0.0, 0.0, 3.0, 1.0, 0.0, 4.0, 6.0, 5.0, 13.0, 9.0, 5.0, 7.0, 8.0, 7.0, 6.0, 8.0, 18.0, 6.0, 6.0, 10.0, 10.0, 13.0, 35.0, 42.0, 22.0, 26.0, 20.0, 21.0, 23.0, 31.0, 33.0, 24.0, 31.0, 23.0, 14.0, 5.0, 5.0, 6.0, 0.0, 1.0, 0.0, 0.0, 1.0, 0.0, 1.0, 0.0, 0.0, 0.0, 0.0, 0.0, 0.0, 0.0, 0.0, 0.0, 0.0, 0.0, 0.0, 0.0, 0.0, 1.0], "bins": [-3.609240770339966, -3.541025161743164, -3.4728097915649414, -3.4045941829681396, -3.336378812789917, -3.2681632041931152, -3.1999478340148926, -3.131732225418091, -3.063516616821289, -2.9953012466430664, -2.9270858764648438, -2.858870267868042, -2.7906546592712402, -2.7224392890930176, -2.654223680496216, -2.586008071899414, -2.5177927017211914, -2.4495773315429688, -2.381361722946167, -2.3131461143493652, -2.2449307441711426, -2.176715135574341, -2.108499526977539, -2.0402841567993164, -1.9720686674118042, -1.903853178024292, -1.8356376886367798, -1.7674221992492676, -1.6992065906524658, -1.6309911012649536, -1.5627756118774414, -1.4945602416992188, -1.426344394683838, -1.3581287860870361, -1.2899134159088135, -1.2216979265213013, -1.153482437133789, -1.0852668285369873, -1.017051339149475, -0.9488358497619629, -0.8806203603744507, -0.8124048709869385, -0.7441893815994263, -0.6759738922119141, -0.6077582836151123, -0.5395427942276001, -0.4713273048400879, -0.4031118154525757, -0.3348963260650635, -0.26668083667755127, -0.19846534729003906, -0.13024979829788208, -0.06203430891036987, 0.006181180477142334, 0.07439672946929932, 0.14261221885681152, 0.21082770824432373, 0.27904319763183594, 0.34725871682167053, 0.4154742360115051, 0.48368972539901733, 0.5519052147865295, 0.6201207637786865, 0.6883362531661987, 0.7565517425537109]}, "parameters/vgg_block.vgg_block.12.conv.weight": {"_type": "histogram", "values": [5.0, 3.0, 39.0, 101.0, 236.0, 401.0, 1034.0, 5127.0, 6037.0, 6465.0, 9008.0, 14830.0, 33100.0, 559538.0, 303859.0, 72916.0, 36982.0, 23066.0, 15915.0, 11817.0, 9501.0, 7743.0, 6612.0, 5690.0, 4971.0, 4484.0, 4045.0, 3678.0, 3419.0, 3278.0, 2986.0, 3042.0, 2953.0, 2837.0, 2955.0, 3072.0, 3208.0, 3175.0, 3409.0, 3667.0, 3850.0, 3462.0, 3668.0, 4682.0, 6626.0, 10912.0, 20568.0, 58430.0, 717309.0, 153106.0, 62802.0, 38601.0, 27703.0, 23837.0, 24522.0, 9169.0, 2788.0, 1154.0, 603.0, 234.0, 54.0, 8.0, 3.0, 1.0], "bins": [-3.603912830352783, -3.488452672958374, -3.3729922771453857, -3.2575321197509766, -3.1420719623565674, -3.026611804962158, -2.91115140914917, -2.7956912517547607, -2.6802310943603516, -2.5647706985473633, -2.449310541152954, -2.333850383758545, -2.2183899879455566, -2.1029298305511475, -1.9874695539474487, -1.8720093965530396, -1.7565491199493408, -1.641088843345642, -1.5256285667419434, -1.4101684093475342, -1.294708251953125, -1.1792478561401367, -1.0637876987457275, -0.9483275413513184, -0.8328671455383301, -0.7174069881439209, -0.6019468307495117, -0.48648667335510254, -0.37102627754211426, -0.2555661201477051, -0.1401059627532959, -0.024645566940307617, 0.09081482887268066, 0.20627498626708984, 0.3217353820800781, 0.4371955394744873, 0.5526556968688965, 0.6681160926818848, 0.783576250076294, 0.8990364074707031, 1.0144965648651123, 1.1299569606781006, 1.2454171180725098, 1.360877275466919, 1.4763376712799072, 1.5917978286743164, 1.7072579860687256, 1.8227182626724243, 1.938178539276123, 2.0536389350891113, 2.1690988540649414, 2.2845592498779297, 2.400019407272339, 2.515479564666748, 2.6309399604797363, 2.7464001178741455, 2.8618602752685547, 2.977320671081543, 3.092780828475952, 3.2082409858703613, 3.3237013816833496, 3.439161539077759, 3.554621696472168, 3.6700820922851562, 3.7855422496795654]}, "parameters/vgg_block.vgg_block.12.conv.bias": {"_type": "histogram", "values": [1.0, 0.0, 0.0, 1.0, 1.0, 0.0, 0.0, 1.0, 3.0, 6.0, 1.0, 3.0, 0.0, 7.0, 6.0, 1.0, 8.0, 5.0, 9.0, 17.0, 11.0, 10.0, 12.0, 7.0, 14.0, 25.0, 23.0, 7.0, 15.0, 17.0, 4.0, 6.0, 29.0, 30.0, 9.0, 8.0, 15.0, 15.0, 4.0, 36.0, 16.0, 9.0, 10.0, 6.0, 5.0, 21.0, 19.0, 7.0, 5.0, 4.0, 4.0, 10.0, 7.0, 2.0, 3.0, 1.0, 6.0, 2.0, 1.0, 2.0, 1.0, 3.0, 0.0, 1.0], "bins": [-0.5113211870193481, -0.49576443433761597, -0.4802076816558838, -0.4646509289741516, -0.44909417629241943, -0.43353742361068726, -0.4179806709289551, -0.4024239182472229, -0.3868671655654907, -0.37131041288375854, -0.35575366020202637, -0.3401969075202942, -0.324640154838562, -0.30908340215682983, -0.29352664947509766, -0.2779698967933655, -0.2624131441116333, -0.24685639142990112, -0.23129963874816895, -0.21574288606643677, -0.2001861333847046, -0.1846293807029724, -0.16907262802124023, -0.15351587533950806, -0.13795912265777588, -0.1224023699760437, -0.10684561729431152, -0.09128886461257935, -0.07573211193084717, -0.06017535924911499, -0.04461860656738281, -0.029061853885650635, -0.013505101203918457, 0.0020516514778137207, 0.0176084041595459, 0.033165156841278076, 0.048721909523010254, 0.06427866220474243, 0.07983541488647461, 0.09539216756820679, 0.11094892024993896, 0.12650567293167114, 0.14206242561340332, 0.1576191782951355, 0.17317593097686768, 0.18873268365859985, 0.20428943634033203, 0.2198461890220642, 0.2354029417037964, 0.25095969438552856, 0.26651644706726074, 0.2820731997489929, 0.2976299524307251, 0.3131867051124573, 0.32874345779418945, 0.34430021047592163, 0.3598569631576538, 0.375413715839386, 0.39097046852111816, 0.40652722120285034, 0.4220839738845825, 0.4376407265663147, 0.4531974792480469, 0.46875423192977905, 0.48431098461151123]}, "parameters/vgg_block.vgg_block.12.bn.weight": {"_type": "histogram", "values": [1.0, 1.0, 2.0, 4.0, 2.0, 2.0, 5.0, 2.0, 6.0, 5.0, 7.0, 14.0, 13.0, 21.0, 8.0, 7.0, 3.0, 4.0, 5.0, 10.0, 16.0, 36.0, 17.0, 10.0, 4.0, 5.0, 4.0, 1.0, 1.0, 1.0, 3.0, 4.0, 1.0, 4.0, 3.0, 4.0, 4.0, 6.0, 9.0, 2.0, 12.0, 14.0, 27.0, 29.0, 23.0, 7.0, 5.0, 2.0, 0.0, 3.0, 2.0, 4.0, 12.0, 30.0, 33.0, 28.0, 5.0, 4.0, 4.0, 4.0, 3.0, 1.0, 2.0, 1.0], "bins": [-2.3698532581329346, -2.2675223350524902, -2.165191411972046, -2.0628604888916016, -1.9605298042297363, -1.858198881149292, -1.7558679580688477, -1.6535370349884033, -1.5512062311172485, -1.4488754272460938, -1.3465445041656494, -1.244213581085205, -1.1418826580047607, -1.039551854133606, -0.9372209310531616, -0.8348901271820068, -0.7325592041015625, -0.6302282810211182, -0.5278974771499634, -0.42556655406951904, -0.32323575019836426, -0.22090482711791992, -0.11857390403747559, -0.01624298095703125, 0.08608794212341309, 0.18841862678527832, 0.29074954986572266, 0.393080472946167, 0.49541139602661133, 0.5977423191070557, 0.7000730037689209, 0.8024039268493652, 0.9047350883483887, 1.007066011428833, 1.1093969345092773, 1.2117276191711426, 1.314058542251587, 1.4163894653320312, 1.5187203884124756, 1.62105131149292, 1.7233819961547852, 1.8257129192352295, 1.9280438423156738, 2.030374765396118, 2.1327056884765625, 2.2350363731384277, 2.337367534637451, 2.4396982192993164, 2.5420291423797607, 2.644360065460205, 2.7466907501220703, 2.8490219116210938, 2.951352596282959, 3.0536835193634033, 3.1560144424438477, 3.258345365524292, 3.3606762886047363, 3.4630069732666016, 3.565337896347046, 3.6676688194274902, 3.7699997425079346, 3.872330665588379, 3.974661350250244, 4.076992511749268, 4.179323196411133]}, "parameters/vgg_block.vgg_block.12.bn.bias": {"_type": "histogram", "values": [3.0, 13.0, 4.0, 7.0, 7.0, 5.0, 4.0, 4.0, 4.0, 8.0, 16.0, 9.0, 10.0, 13.0, 6.0, 4.0, 8.0, 24.0, 51.0, 61.0, 24.0, 29.0, 50.0, 36.0, 33.0, 24.0, 13.0, 11.0, 10.0, 8.0, 7.0, 0.0, 1.0, 0.0, 0.0, 0.0, 0.0, 2.0, 1.0, 0.0, 0.0, 1.0, 0.0, 0.0, 0.0, 0.0, 0.0, 0.0, 0.0, 0.0, 0.0, 0.0, 0.0, 0.0, 0.0, 0.0, 0.0, 0.0, 0.0, 0.0, 0.0, 0.0, 0.0, 1.0], "bins": [-2.996744155883789, -2.92154598236084, -2.8463478088378906, -2.7711496353149414, -2.695951461791992, -2.620753049850464, -2.5455548763275146, -2.4703567028045654, -2.395158529281616, -2.319960355758667, -2.2447621822357178, -2.1695637702941895, -2.0943655967712402, -2.019167423248291, -1.9439692497253418, -1.8687710762023926, -1.7935729026794434, -1.7183747291564941, -1.643176555633545, -1.5679782629013062, -1.492780089378357, -1.4175819158554077, -1.342383623123169, -1.2671854496002197, -1.1919872760772705, -1.1167891025543213, -1.041590929031372, -0.9663927555084229, -0.8911943435668945, -0.8159961700439453, -0.7407979965209961, -0.6655998229980469, -0.5904018878936768, -0.5152037143707275, -0.4400055408477783, -0.3648073673248291, -0.2896091938018799, -0.21441078186035156, -0.13921260833740234, -0.06401443481445312, 0.011183738708496094, 0.08638191223144531, 0.16158008575439453, 0.2367783784866333, 0.3119765520095825, 0.38717472553253174, 0.4623730182647705, 0.5375711917877197, 0.612769365310669, 0.6879675388336182, 0.7631657123565674, 0.8383640050888062, 0.9135621786117554, 0.9887603521347046, 1.0639586448669434, 1.1391568183898926, 1.2143549919128418, 1.289553165435791, 1.3647513389587402, 1.439949631690979, 1.5151478052139282, 1.5903459787368774, 1.6655442714691162, 1.7407424449920654, 1.8159406185150146]}, "parameters/vgg_block.vgg_block.14.conv.weight": {"_type": "histogram", "values": [1.0, 8.0, 11.0, 23.0, 58.0, 161.0, 1867.0, 6341.0, 6282.0, 7278.0, 9558.0, 15715.0, 37308.0, 681281.0, 166054.0, 62908.0, 35472.0, 23796.0, 17090.0, 12992.0, 10508.0, 9142.0, 8279.0, 7005.0, 6355.0, 5696.0, 5228.0, 4925.0, 4625.0, 4433.0, 4228.0, 4152.0, 4066.0, 4116.0, 4070.0, 4159.0, 4235.0, 4484.0, 4721.0, 5154.0, 5440.0, 5712.0, 4378.0, 4711.0, 6173.0, 8772.0, 14047.0, 26198.0, 75606.0, 653917.0, 133448.0, 65746.0, 42586.0, 33325.0, 30022.0, 35744.0, 15903.0, 2384.0, 812.0, 356.0, 170.0, 47.0, 13.0, 1.0], "bins": [-3.518066883087158, -3.406317710876465, -3.2945687770843506, -3.1828196048736572, -3.071070671081543, -2.9593214988708496, -2.8475723266601562, -2.735823392868042, -2.6240744590759277, -2.5123252868652344, -2.400576114654541, -2.2888271808624268, -2.1770780086517334, -2.065329074859619, -1.9535799026489258, -1.841830849647522, -1.7300817966461182, -1.6183327436447144, -1.5065836906433105, -1.3948345184326172, -1.283085584640503, -1.1713364124298096, -1.0595874786376953, -0.947838306427002, -0.8360891342163086, -0.7243402004241943, -0.612591028213501, -0.5008420944213867, -0.38909292221069336, -0.2773439884185791, -0.16559481620788574, -0.053845882415771484, 0.05790305137634277, 0.16965222358703613, 0.2814011573791504, 0.39315032958984375, 0.504899263381958, 0.6166484355926514, 0.7283973693847656, 0.840146541595459, 0.9518954753875732, 1.0636446475982666, 1.17539381980896, 1.2871427536010742, 1.3988919258117676, 1.5106408596038818, 1.6223900318145752, 1.734139084815979, 1.8458881378173828, 1.9576371908187866, 2.0693862438201904, 2.1811351776123047, 2.292884349822998, 2.4046335220336914, 2.5163826942443848, 2.628131628036499, 2.7398805618286133, 2.8516297340393066, 2.96337890625, 3.0751278400421143, 3.1868770122528076, 3.298625946044922, 3.4103751182556152, 3.5221240520477295, 3.633873224258423]}, "parameters/vgg_block.vgg_block.14.conv.bias": {"_type": "histogram", "values": [1.0, 0.0, 0.0, 0.0, 0.0, 0.0, 1.0, 1.0, 0.0, 1.0, 1.0, 6.0, 8.0, 2.0, 8.0, 6.0, 1.0, 8.0, 15.0, 5.0, 6.0, 15.0, 7.0, 23.0, 23.0, 20.0, 7.0, 21.0, 19.0, 17.0, 15.0, 31.0, 30.0, 13.0, 13.0, 23.0, 10.0, 14.0, 15.0, 23.0, 16.0, 10.0, 14.0, 9.0, 7.0, 11.0, 12.0, 4.0, 2.0, 4.0, 0.0, 3.0, 3.0, 0.0, 1.0, 2.0, 0.0, 1.0, 1.0, 2.0, 0.0, 0.0, 0.0, 1.0], "bins": [-0.4731774926185608, -0.4583549201488495, -0.44353237748146057, -0.42870980501174927, -0.41388726234436035, -0.39906468987464905, -0.38424211740493774, -0.36941957473754883, -0.3545970022678375, -0.3397744297981262, -0.3249518871307373, -0.3101293444633484, -0.2953067719936371, -0.2804841995239258, -0.26566165685653687, -0.25083908438682556, -0.23601652681827545, -0.22119396924972534, -0.20637139678001404, -0.19154885411262512, -0.17672628164291382, -0.1619037389755249, -0.1470811665058136, -0.1322585940361023, -0.11743605136871338, -0.10261347889900208, -0.08779093623161316, -0.07296836376190186, -0.05814579129219055, -0.043323248624801636, -0.028500676155090332, -0.013678133487701416, 0.0011444389820098877, 0.01596701145172119, 0.030789554119110107, 0.04561212658882141, 0.06043466925621033, 0.07525724172592163, 0.09007981419563293, 0.10490235686302185, 0.11972492933273315, 0.13454747200012207, 0.14937004446983337, 0.16419261693954468, 0.1790151596069336, 0.1938377320766449, 0.2086602747440338, 0.22348284721374512, 0.23830540478229523, 0.25312796235084534, 0.26795053482055664, 0.28277307748794556, 0.29759564995765686, 0.31241822242736816, 0.3272407650947571, 0.342063307762146, 0.3568858802318573, 0.3717084527015686, 0.3865309953689575, 0.4013535678386688, 0.4161761403083801, 0.43099868297576904, 0.44582125544548035, 0.46064379811286926, 0.47546637058258057]}, "parameters/vgg_block.vgg_block.14.bn.weight": {"_type": "histogram", "values": [1.0, 1.0, 0.0, 0.0, 1.0, 3.0, 5.0, 2.0, 6.0, 11.0, 5.0, 4.0, 1.0, 1.0, 0.0, 5.0, 1.0, 4.0, 6.0, 13.0, 17.0, 11.0, 8.0, 7.0, 4.0, 6.0, 2.0, 1.0, 6.0, 1.0, 1.0, 4.0, 1.0, 4.0, 4.0, 2.0, 3.0, 1.0, 3.0, 11.0, 6.0, 12.0, 42.0, 39.0, 52.0, 29.0, 9.0, 3.0, 1.0, 0.0, 4.0, 0.0, 5.0, 2.0, 10.0, 21.0, 39.0, 27.0, 15.0, 12.0, 6.0, 3.0, 6.0, 2.0], "bins": [-2.236081838607788, -2.139364242553711, -2.0426464080810547, -1.9459288120269775, -1.8492112159729004, -1.7524935007095337, -1.655775785446167, -1.5590581893920898, -1.4623404741287231, -1.3656227588653564, -1.2689051628112793, -1.1721874475479126, -1.075469732284546, -0.9787521362304688, -0.882034420967102, -0.7853168249130249, -0.6885991096496582, -0.5918813943862915, -0.49516379833221436, -0.39844608306884766, -0.3017284870147705, -0.20501065254211426, -0.10829305648803711, -0.011575460433959961, 0.08514237403869629, 0.18185997009277344, 0.2785775661468506, 0.37529516220092773, 0.472012996673584, 0.5687305927276611, 0.6654481887817383, 0.7621660232543945, 0.8588833808898926, 0.9556009769439697, 1.052318811416626, 1.1490364074707031, 1.2457540035247803, 1.3424718379974365, 1.4391894340515137, 1.5359070301055908, 1.632624626159668, 1.7293424606323242, 1.8260600566864014, 1.9227776527404785, 2.0194954872131348, 2.116213083267212, 2.212930679321289, 2.3096485137939453, 2.4063661098480225, 2.5030837059020996, 2.599801540374756, 2.696519136428833, 2.79323673248291, 2.8899545669555664, 2.9866721630096436, 3.0833897590637207, 3.180107593536377, 3.276825189590454, 3.3735427856445312, 3.4702606201171875, 3.5669782161712646, 3.663695812225342, 3.760413408279419, 3.857131242752075, 3.9538488388061523]}, "parameters/vgg_block.vgg_block.14.bn.bias": {"_type": "histogram", "values": [3.0, 1.0, 2.0, 6.0, 0.0, 8.0, 5.0, 6.0, 5.0, 8.0, 3.0, 8.0, 5.0, 3.0, 4.0, 5.0, 3.0, 1.0, 3.0, 3.0, 15.0, 12.0, 17.0, 16.0, 32.0, 63.0, 35.0, 36.0, 26.0, 15.0, 2.0, 8.0, 7.0, 6.0, 13.0, 12.0, 7.0, 6.0, 9.0, 9.0, 10.0, 9.0, 16.0, 4.0, 10.0, 5.0, 12.0, 4.0, 3.0, 1.0, 2.0, 4.0, 0.0, 1.0, 1.0, 0.0, 0.0, 0.0, 0.0, 0.0, 0.0, 1.0, 0.0, 1.0], "bins": [-3.083428382873535, -3.0181684494018555, -2.952908515930176, -2.887648582458496, -2.8223886489868164, -2.7571287155151367, -2.691868782043457, -2.6266088485717773, -2.5613489151000977, -2.496088981628418, -2.4308290481567383, -2.3655691146850586, -2.300309181213379, -2.235049247741699, -2.1697893142700195, -2.10452938079834, -2.03926944732666, -1.9740095138549805, -1.9087495803833008, -1.843489646911621, -1.7782297134399414, -1.7129697799682617, -1.647709846496582, -1.5824499130249023, -1.5171899795532227, -1.451930046081543, -1.3866701126098633, -1.3214101791381836, -1.256150245666504, -1.1908903121948242, -1.1256303787231445, -1.0603704452514648, -0.9951103925704956, -0.9298504590988159, -0.8645905256271362, -0.7993305921554565, -0.7340706586837769, -0.6688107252120972, -0.6035507917404175, -0.5382908582687378, -0.4730309247970581, -0.4077709913253784, -0.34251105785369873, -0.27725112438201904, -0.21199119091033936, -0.14673125743865967, -0.08147132396697998, -0.016211390495300293, 0.049048542976379395, 0.11430847644805908, 0.17956840991973877, 0.24482834339141846, 0.31008827686309814, 0.37534821033477783, 0.4406081438064575, 0.5058680772781372, 0.5711280107498169, 0.6363879442214966, 0.7016478776931763, 0.766907811164856, 0.8321677446365356, 0.8974276781082153, 0.962687611579895, 1.0279475450515747, 1.0932074785232544]}, "parameters/vgg_block.vgg_block.15.conv.weight": {"_type": "histogram", "values": [5.0, 10.0, 22.0, 35.0, 53.0, 119.0, 245.0, 456.0, 1425.0, 10568.0, 12483.0, 12143.0, 14379.0, 19794.0, 38197.0, 581773.0, 116656.0, 59788.0, 40363.0, 28998.0, 22415.0, 18994.0, 18656.0, 16348.0, 14351.0, 12979.0, 12075.0, 11239.0, 10813.0, 10474.0, 10327.0, 14717.0, 10089.0, 10243.0, 10251.0, 10880.0, 11514.0, 12333.0, 13997.0, 16157.0, 18396.0, 11251.0, 9211.0, 10639.0, 17029.0, 24402.0, 50463.0, 546153.0, 124643.0, 80989.0, 62859.0, 56250.0, 62222.0, 57093.0, 12960.0, 4479.0, 2175.0, 949.0, 433.0, 172.0, 93.0, 56.0, 11.0, 4.0], "bins": [-3.9241108894348145, -3.799124240875244, -3.674137830734253, -3.5491511821746826, -3.4241647720336914, -3.299178123474121, -3.174191474914551, -3.0492050647735596, -2.9242186546325684, -2.799232006072998, -2.6742453575134277, -2.5492589473724365, -2.424272298812866, -2.299285888671875, -2.1742992401123047, -2.0493125915527344, -1.9243261814117432, -1.7993395328521729, -1.6743531227111816, -1.5493664741516113, -1.4243800640106201, -1.2993934154510498, -1.1744070053100586, -1.0494203567504883, -0.924433708190918, -0.7994472980499268, -0.6744606494903564, -0.5494742393493652, -0.4244875907897949, -0.2995011806488037, -0.1745145320892334, -0.04952812194824219, 0.07545852661132812, 0.20044517517089844, 0.32543158531188965, 0.45041823387145996, 0.5754046440124512, 0.7003912925720215, 0.8253777027130127, 0.950364351272583, 1.0753507614135742, 1.2003374099731445, 1.3253240585327148, 1.450310468673706, 1.5752971172332764, 1.7002835273742676, 1.825270175933838, 1.950256586074829, 2.0752432346343994, 2.2002296447753906, 2.325216293334961, 2.4502029418945312, 2.5751893520355225, 2.7001760005950928, 2.825162410736084, 2.9501490592956543, 3.0751357078552246, 3.200122117996216, 3.325108528137207, 3.4500951766967773, 3.5750818252563477, 3.700068235397339, 3.825054883956909, 3.9500412940979004, 4.075027942657471]}, "parameters/vgg_block.vgg_block.15.conv.bias": {"_type": "histogram", "values": [1.0, 0.0, 0.0, 1.0, 2.0, 0.0, 3.0, 2.0, 1.0, 1.0, 4.0, 2.0, 0.0, 1.0, 3.0, 12.0, 9.0, 6.0, 6.0, 8.0, 15.0, 17.0, 8.0, 16.0, 12.0, 15.0, 23.0, 10.0, 22.0, 21.0, 11.0, 29.0, 28.0, 8.0, 13.0, 21.0, 12.0, 21.0, 25.0, 8.0, 10.0, 8.0, 15.0, 17.0, 10.0, 7.0, 7.0, 9.0, 8.0, 2.0, 4.0, 3.0, 6.0, 1.0, 0.0, 1.0, 2.0, 1.0, 1.0, 0.0, 1.0, 1.0, 0.0, 1.0], "bins": [-0.5831602215766907, -0.5649285912513733, -0.5466969609260559, -0.5284653902053833, -0.5102337598800659, -0.49200212955474854, -0.47377049922943115, -0.45553886890411377, -0.4373072683811188, -0.4190756678581238, -0.4008440375328064, -0.382612407207489, -0.36438077688217163, -0.34614917635917664, -0.32791754603385925, -0.30968594551086426, -0.2914543151855469, -0.2732226848602295, -0.2549910843372345, -0.23675945401191711, -0.21852785348892212, -0.20029622316360474, -0.18206459283828735, -0.16383299231529236, -0.14560136198997498, -0.1273697316646576, -0.1091381311416626, -0.09090650081634521, -0.07267487049102783, -0.05444324016571045, -0.03621166944503784, -0.01798003911972046, 0.00025153160095214844, 0.01848316192626953, 0.036714792251586914, 0.05494636297225952, 0.0731779932975769, 0.09140962362289429, 0.10964125394821167, 0.12787285447120667, 0.14610448479652405, 0.16433611512184143, 0.18256771564483643, 0.2007993459701538, 0.2190309762954712, 0.2372625768184662, 0.25549420714378357, 0.27372580766677856, 0.29195743799209595, 0.31018906831741333, 0.3284206688404083, 0.3466522991657257, 0.3648838996887207, 0.3831155300140381, 0.40134716033935547, 0.41957879066467285, 0.43781039118766785, 0.45604199171066284, 0.4742736220359802, 0.4925052523612976, 0.510736882686615, 0.5289685130119324, 0.547200083732605, 0.5654317140579224, 0.5836633443832397]}, "parameters/vgg_block.vgg_block.15.bn.weight": {"_type": "histogram", "values": [2.0, 3.0, 1.0, 2.0, 4.0, 5.0, 2.0, 3.0, 9.0, 10.0, 7.0, 6.0, 15.0, 10.0, 19.0, 11.0, 10.0, 1.0, 3.0, 7.0, 0.0, 4.0, 5.0, 4.0, 0.0, 5.0, 3.0, 0.0, 0.0, 3.0, 2.0, 4.0, 5.0, 4.0, 3.0, 6.0, 8.0, 5.0, 8.0, 12.0, 21.0, 17.0, 33.0, 30.0, 22.0, 14.0, 13.0, 11.0, 7.0, 8.0, 12.0, 10.0, 14.0, 18.0, 26.0, 15.0, 9.0, 6.0, 8.0, 4.0, 0.0, 0.0, 1.0, 2.0], "bins": [-2.0130138397216797, -1.913098931312561, -1.8131840229034424, -1.7132689952850342, -1.6133540868759155, -1.5134391784667969, -1.4135241508483887, -1.31360924243927, -1.2136943340301514, -1.1137794256210327, -1.013864517211914, -0.9139494895935059, -0.8140345811843872, -0.7141196727752686, -0.6142046451568604, -0.5142897367477417, -0.41437482833862305, -0.3144599199295044, -0.21454501152038574, -0.11462998390197754, -0.014715075492858887, 0.08519983291625977, 0.18511486053466797, 0.28502964973449707, 0.3849446773529053, 0.4848597049713135, 0.5847744941711426, 0.6846895217895508, 0.784604549407959, 0.8845193386077881, 0.9844343662261963, 1.0843491554260254, 1.1842641830444336, 1.2841792106628418, 1.384093999862671, 1.484009027481079, 1.5839238166809082, 1.6838388442993164, 1.7837538719177246, 1.8836686611175537, 1.983583688735962, 2.08349871635437, 2.183413505554199, 2.2833285331726074, 2.3832435607910156, 2.4831583499908447, 2.583073377609253, 2.682988166809082, 2.7829031944274902, 2.8828182220458984, 2.9827330112457275, 3.0826480388641357, 3.182562828063965, 3.282477855682373, 3.3823928833007812, 3.4823079109191895, 3.5822227001190186, 3.6821374893188477, 3.782052516937256, 3.881967544555664, 3.9818825721740723, 4.0817975997924805, 4.1817121505737305, 4.281627178192139, 4.381542205810547]}, "parameters/vgg_block.vgg_block.15.bn.bias": {"_type": "histogram", "values": [1.0, 0.0, 2.0, 4.0, 0.0, 1.0, 3.0, 2.0, 5.0, 6.0, 8.0, 9.0, 13.0, 2.0, 10.0, 11.0, 1.0, 0.0, 1.0, 3.0, 51.0, 56.0, 24.0, 17.0, 27.0, 36.0, 28.0, 19.0, 7.0, 3.0, 2.0, 2.0, 2.0, 2.0, 4.0, 3.0, 2.0, 2.0, 3.0, 0.0, 3.0, 4.0, 4.0, 4.0, 4.0, 1.0, 1.0, 3.0, 9.0, 14.0, 6.0, 8.0, 5.0, 13.0, 13.0, 11.0, 16.0, 9.0, 4.0, 4.0, 1.0, 1.0, 1.0, 1.0], "bins": [-3.12031626701355, -3.0553460121154785, -2.9903759956359863, -2.925405740737915, -2.8604354858398438, -2.7954654693603516, -2.7304952144622803, -2.665525197982788, -2.600554943084717, -2.5355849266052246, -2.4706146717071533, -2.405644416809082, -2.34067440032959, -2.2757041454315186, -2.2107338905334473, -2.145763874053955, -2.080793619155884, -2.0158233642578125, -1.9508533477783203, -1.885883092880249, -1.8209129571914673, -1.7559428215026855, -1.6909725666046143, -1.6260024309158325, -1.5610322952270508, -1.496062159538269, -1.4310920238494873, -1.366121768951416, -1.3011516332626343, -1.2361814975738525, -1.1712112426757812, -1.106241226196289, -1.0412709712982178, -0.9763007164001465, -0.9113306999206543, -0.846360445022583, -0.7813903093338013, -0.7164201736450195, -0.6514499187469482, -0.5864797830581665, -0.5215096473693848, -0.456539511680603, -0.3915693759918213, -0.32659912109375, -0.26162898540496826, -0.19665884971618652, -0.13168859481811523, -0.0667184591293335, -0.0017483234405517578, 0.06322181224822998, 0.1281920075416565, 0.193162202835083, 0.25813233852386475, 0.3231024742126465, 0.388072669506073, 0.4530428647994995, 0.5180130004882812, 0.582983136177063, 0.6479533314704895, 0.712923526763916, 0.7778936624526978, 0.8428637981414795, 0.907833993434906, 0.9728041887283325, 1.0377743244171143]}, "parameters/vgg_block.vgg_block.16.conv.weight": {"_type": "histogram", "values": [4.0, 10.0, 56.0, 126.0, 260.0, 767.0, 1449.0, 2564.0, 4454.0, 6861.0, 10396.0, 18067.0, 25391.0, 29057.0, 34503.0, 49862.0, 102863.0, 560651.0, 80587.0, 41496.0, 28343.0, 21059.0, 17446.0, 15917.0, 16710.0, 15581.0, 14408.0, 13430.0, 12976.0, 12305.0, 11962.0, 11688.0, 14489.0, 11638.0, 11772.0, 12024.0, 12905.0, 13402.0, 13638.0, 14161.0, 15345.0, 15714.0, 16740.0, 19103.0, 24194.0, 35869.0, 62592.0, 517107.0, 142262.0, 65195.0, 47482.0, 38183.0, 31676.0, 25636.0, 15719.0, 9167.0, 5481.0, 3102.0, 1947.0, 1045.0, 353.0, 85.0, 14.0, 7.0], "bins": [-4.286435127258301, -4.154796600341797, -4.023157596588135, -3.891519069671631, -3.759880304336548, -3.628241539001465, -3.496602773666382, -3.364964008331299, -3.233325481414795, -3.101686477661133, -2.970047950744629, -2.838409185409546, -2.706770420074463, -2.575131893157959, -2.443492889404297, -2.311854362487793, -2.18021559715271, -2.048576831817627, -1.916938066482544, -1.78529953956604, -1.653660774230957, -1.522022008895874, -1.390383243560791, -1.258744478225708, -1.127105712890625, -0.9954671859741211, -0.8638284206390381, -0.7321896553039551, -0.6005508899688721, -0.46891212463378906, -0.33727359771728516, -0.20563459396362305, -0.07399606704711914, 0.057642459869384766, 0.18928146362304688, 0.3209199905395508, 0.4525587558746338, 0.5841975212097168, 0.7158362865447998, 0.8474750518798828, 0.9791135787963867, 1.1107523441314697, 1.2423911094665527, 1.3740298748016357, 1.5056686401367188, 1.6373074054718018, 1.7689459323883057, 1.9005846977233887, 2.0322234630584717, 2.1638622283935547, 2.2955007553100586, 2.4271397590637207, 2.5587782859802246, 2.6904170513153076, 2.8220558166503906, 2.9536943435668945, 3.0853333473205566, 3.2169718742370605, 3.3486106395721436, 3.4802494049072266, 3.6118881702423096, 3.7435269355773926, 3.8751654624938965, 4.006804466247559, 4.1384429931640625]}, "parameters/vgg_block.vgg_block.16.conv.bias": {"_type": "histogram", "values": [1.0, 0.0, 0.0, 2.0, 1.0, 0.0, 1.0, 0.0, 1.0, 3.0, 3.0, 5.0, 4.0, 5.0, 9.0, 1.0, 13.0, 11.0, 19.0, 9.0, 14.0, 13.0, 15.0, 24.0, 15.0, 21.0, 22.0, 29.0, 40.0, 20.0, 19.0, 17.0, 17.0, 23.0, 21.0, 12.0, 8.0, 14.0, 15.0, 12.0, 12.0, 6.0, 3.0, 8.0, 2.0, 4.0, 3.0, 6.0, 2.0, 0.0, 1.0, 0.0, 2.0, 1.0, 1.0, 0.0, 1.0, 0.0, 0.0, 0.0, 0.0, 0.0, 0.0, 1.0], "bins": [-0.5866391062736511, -0.5661171674728394, -0.5455952882766724, -0.5250733494758606, -0.5045514702796936, -0.48402953147888184, -0.46350762248039246, -0.4429857134819031, -0.4224638044834137, -0.4019418954849243, -0.38141998648643494, -0.36089807748794556, -0.3403761386871338, -0.3198542296886444, -0.29933232069015503, -0.27881041169166565, -0.25828850269317627, -0.2377665936946869, -0.2172446846961975, -0.19672277569770813, -0.17620086669921875, -0.15567892789840698, -0.1351570188999176, -0.11463510990142822, -0.09411320090293884, -0.07359129190444946, -0.053069353103637695, -0.0325474739074707, -0.012025535106658936, 0.008496344089508057, 0.029018282890319824, 0.049540162086486816, 0.07006210088729858, 0.09058403968811035, 0.11110591888427734, 0.1316278576850891, 0.1521497368812561, 0.17267167568206787, 0.19319355487823486, 0.21371549367904663, 0.234237402677536, 0.2547593116760254, 0.27528122067451477, 0.29580312967300415, 0.3163250684738159, 0.3368469774723053, 0.3573688864707947, 0.37789079546928406, 0.39841270446777344, 0.4189346134662628, 0.4394565224647522, 0.4599784314632416, 0.48050034046173096, 0.5010222792625427, 0.5215442180633545, 0.5420660972595215, 0.5625879764556885, 0.5831099152565002, 0.603631854057312, 0.624153733253479, 0.6446756720542908, 0.6651975512504578, 0.6857194900512695, 0.7062413692474365, 0.7267633080482483]}, "parameters/vgg_block.vgg_block.16.bn.weight": {"_type": "histogram", "values": [1.0, 0.0, 3.0, 3.0, 0.0, 2.0, 6.0, 22.0, 19.0, 13.0, 14.0, 12.0, 7.0, 5.0, 9.0, 10.0, 4.0, 6.0, 4.0, 8.0, 6.0, 7.0, 6.0, 7.0, 5.0, 2.0, 6.0, 5.0, 8.0, 9.0, 8.0, 9.0, 7.0, 8.0, 7.0, 15.0, 8.0, 20.0, 25.0, 18.0, 16.0, 22.0, 10.0, 8.0, 3.0, 13.0, 13.0, 15.0, 9.0, 13.0, 7.0, 7.0, 7.0, 7.0, 4.0, 13.0, 2.0, 1.0, 2.0, 0.0, 1.0, 2.0, 0.0, 3.0], "bins": [-1.8625801801681519, -1.815685510635376, -1.7687909603118896, -1.7218964099884033, -1.6750017404556274, -1.6281070709228516, -1.5812125205993652, -1.534317970275879, -1.487423300743103, -1.4405286312103271, -1.3936340808868408, -1.3467395305633545, -1.2998448610305786, -1.2529501914978027, -1.2060556411743164, -1.15916109085083, -1.1122664213180542, -1.0653717517852783, -1.018477201461792, -0.9715825915336609, -0.9246879816055298, -0.8777933716773987, -0.8308987617492676, -0.7840040922164917, -0.7371095418930054, -0.690214991569519, -0.6433203220367432, -0.5964256525039673, -0.549531102180481, -0.5026365518569946, -0.45574188232421875, -0.40884721279144287, -0.3619527816772461, -0.31505823135375977, -0.2681635618209839, -0.221268892288208, -0.17437434196472168, -0.12747979164123535, -0.08058512210845947, -0.033690452575683594, 0.013204097747802734, 0.06009864807128906, 0.10699331760406494, 0.15388792753219604, 0.20078253746032715, 0.24767714738845825, 0.29457175731658936, 0.34146636724472046, 0.38836097717285156, 0.43525558710098267, 0.48215019702911377, 0.5290448069572449, 0.575939416885376, 0.6228340268135071, 0.6697286367416382, 0.7166232466697693, 0.7635178565979004, 0.8104124665260315, 0.8573070764541626, 0.9042016863822937, 0.9510962963104248, 0.9979909062385559, 1.044885516166687, 1.091780185699463, 1.1386747360229492]}, "parameters/vgg_block.vgg_block.16.bn.bias": {"_type": "histogram", "values": [1.0, 0.0, 2.0, 0.0, 0.0, 2.0, 1.0, 1.0, 5.0, 7.0, 4.0, 4.0, 5.0, 6.0, 9.0, 8.0, 11.0, 11.0, 7.0, 13.0, 11.0, 4.0, 8.0, 10.0, 8.0, 8.0, 9.0, 12.0, 10.0, 9.0, 5.0, 16.0, 28.0, 13.0, 11.0, 4.0, 4.0, 2.0, 0.0, 2.0, 4.0, 3.0, 2.0, 4.0, 7.0, 14.0, 35.0, 59.0, 41.0, 10.0, 7.0, 15.0, 24.0, 9.0, 3.0, 0.0, 0.0, 1.0, 0.0, 1.0, 1.0, 0.0, 0.0, 1.0], "bins": [-3.349069595336914, -3.3191020488739014, -3.2891345024108887, -3.259166955947876, -3.2291994094848633, -3.1992321014404297, -3.169264554977417, -3.1392970085144043, -3.1093294620513916, -3.079361915588379, -3.049394369125366, -3.0194268226623535, -2.989459276199341, -2.959491729736328, -2.9295244216918945, -2.899556875228882, -2.869589328765869, -2.8396217823028564, -2.8096542358398438, -2.779686689376831, -2.7497191429138184, -2.7197518348693848, -2.689784049987793, -2.6598167419433594, -2.6298491954803467, -2.599881649017334, -2.5699141025543213, -2.5399465560913086, -2.509979009628296, -2.480011463165283, -2.4500441551208496, -2.420076608657837, -2.390109062194824, -2.3601415157318115, -2.330173969268799, -2.300206422805786, -2.2702388763427734, -2.2402713298797607, -2.210303783416748, -2.1803364753723145, -2.1503689289093018, -2.120401382446289, -2.0904338359832764, -2.0604662895202637, -2.030498743057251, -2.0005311965942383, -1.9705637693405151, -1.9405962228775024, -1.9106286764144897, -1.8806612491607666, -1.850693702697754, -1.8207261562347412, -1.7907586097717285, -1.7607910633087158, -1.7308236360549927, -1.70085608959198, -1.6708885431289673, -1.6409209966659546, -1.6109535694122314, -1.5809860229492188, -1.551018476486206, -1.5210509300231934, -1.4910835027694702, -1.4611159563064575, -1.4311484098434448]}, "parameters/classifier.weight": {"_type": "histogram", "values": [1.0, 1.0, 1.0, 1.0, 0.0, 0.0, 1.0, 1.0, 3.0, 12.0, 3.0, 1.0, 177.0, 478.0, 93.0, 90.0, 76.0, 60.0, 40.0, 49.0, 44.0, 31.0, 61.0, 132.0, 170.0, 131.0, 81.0, 50.0, 44.0, 40.0, 56.0, 68.0, 110.0, 106.0, 76.0, 87.0, 85.0, 93.0, 97.0, 94.0, 95.0, 89.0, 106.0, 129.0, 128.0, 117.0, 102.0, 118.0, 115.0, 145.0, 131.0, 135.0, 229.0, 225.0, 97.0, 102.0, 94.0, 80.0, 64.0, 50.0, 22.0, 2.0, 0.0, 1.0], "bins": [-3.2963852882385254, -3.1968419551849365, -3.0972988605499268, -2.997755527496338, -2.898212432861328, -2.7986690998077393, -2.6991257667541504, -2.5995826721191406, -2.5000393390655518, -2.400496006011963, -2.300952911376953, -2.2014095783233643, -2.1018662452697754, -2.0023231506347656, -1.9027798175811768, -1.8032366037368774, -1.7036933898925781, -1.6041501760482788, -1.5046069622039795, -1.4050636291503906, -1.3055204153060913, -1.205977201461792, -1.1064338684082031, -1.0068907737731934, -0.9073474407196045, -0.8078041076660156, -0.7082610130310059, -0.608717679977417, -0.5091743469238281, -0.40963125228881836, -0.3100879192352295, -0.21054482460021973, -0.11100149154663086, -0.011458158493041992, 0.08808493614196777, 0.18762826919555664, 0.2871713638305664, 0.3867146968841553, 0.48625802993774414, 0.5858011245727539, 0.6853444576263428, 0.7848877906799316, 0.8844308853149414, 0.9839742183685303, 1.0835174322128296, 1.183060646057129, 1.2826039791107178, 1.382147192955017, 1.4816904067993164, 1.5812336206436157, 1.680776834487915, 1.780320167541504, 1.8798633813858032, 1.9794065952301025, 2.0789499282836914, 2.178493022918701, 2.27803635597229, 2.377579689025879, 2.4771227836608887, 2.5766661167144775, 2.6762094497680664, 2.775752544403076, 2.875295877456665, 2.974838972091675, 3.0743823051452637]}, "parameters/classifier.bias": {"_type": "histogram", "values": [1.0, 0.0, 0.0, 0.0, 0.0, 0.0, 0.0, 0.0, 0.0, 0.0, 0.0, 0.0, 0.0, 1.0, 0.0, 0.0, 1.0, 0.0, 0.0, 0.0, 0.0, 0.0, 0.0, 1.0, 0.0, 0.0, 0.0, 0.0, 0.0, 0.0, 0.0, 0.0, 0.0, 0.0, 0.0, 0.0, 0.0, 1.0, 0.0, 0.0, 0.0, 0.0, 0.0, 0.0, 0.0, 0.0, 0.0, 0.0, 0.0, 0.0, 0.0, 0.0, 0.0, 1.0, 0.0, 0.0, 1.0, 0.0, 2.0, 0.0, 0.0, 0.0, 0.0, 1.0], "bins": [-0.27916812896728516, -0.25284940004348755, -0.22653070092201233, -0.20021198689937592, -0.1738932728767395, -0.1475745588541031, -0.12125584483146667, -0.09493713080883026, -0.06861841678619385, -0.042299702763557434, -0.01598098874092102, 0.0103377103805542, 0.03665643930435181, 0.06297516822814941, 0.08929386734962463, 0.11561256647109985, 0.14193129539489746, 0.16825002431869507, 0.1945687234401703, 0.2208874225616455, 0.24720615148544312, 0.2735248804092407, 0.29984354972839355, 0.32616227865219116, 0.35248100757598877, 0.3787997364997864, 0.405118465423584, 0.4314371347427368, 0.4577558636665344, 0.48407459259033203, 0.5103932619094849, 0.5367119908332825, 0.5630307197570801, 0.5893494486808777, 0.6156681776046753, 0.6419868469238281, 0.6683055758476257, 0.6946243047714233, 0.7209429740905762, 0.7472617030143738, 0.7735804319381714, 0.799899160861969, 0.8262178897857666, 0.8525365591049194, 0.878855288028717, 0.9051740169525146, 0.9314926862716675, 0.9578114151954651, 0.9841301441192627, 1.010448932647705, 1.036767601966858, 1.0630862712860107, 1.0894050598144531, 1.115723729133606, 1.1420423984527588, 1.1683611869812012, 1.194679856300354, 1.2209985256195068, 1.2473173141479492, 1.273635983467102, 1.2999546527862549, 1.3262734413146973, 1.35259211063385, 1.3789108991622925, 1.4052295684814453]}, "_runtime": 3.1605279445648193, "_step": 0, "_wandb": {"runtime": 2}}